4231 100
</s> 0.004003 0.004419 -0.003830 -0.003278 0.001367 0.003021 0.000941 0.000211 -0.003604 0.002218 -0.004356 0.001250 -0.000751 -0.000957 -0.003316 -0.001882 0.002579 0.003025 0.002969 0.001597 0.001545 -0.003803 -0.004096 0.004970 0.003801 0.003090 -0.000604 0.004016 -0.000495 0.000735 -0.000149 -0.002983 0.001312 -0.001337 -0.003825 0.004754 0.004379 -0.001095 -0.000226 0.000509 -0.003638 -0.004007 0.004555 0.000063 -0.002582 -0.003042 -0.003076 0.001697 0.000201 0.001331 -0.004214 -0.003808 -0.000130 0.001144 0.002550 -0.003170 0.004080 0.000927 0.001120 -0.000608 0.002986 -0.002288 -0.002097 0.002158 -0.000753 0.001031 0.001805 -0.004089 -0.001983 0.002914 0.004232 0.003932 -0.003047 -0.002108 -0.000909 0.002001 -0.003788 0.002998 0.002788 -0.001599 -0.001552 -0.002238 0.004229 0.003912 -0.001180 0.004215 0.004820 0.001815 0.004983 -0.003111 -0.001532 -0.002107 -0.002907 0.002815 0.001579 0.000425 -0.002194 0.001524 0.003059 0.000194 
- 0.231764 0.803649 0.215391 0.326138 -0.731926 0.240013 1.181480 -0.201794 -0.110332 0.139846 0.697158 -0.155754 -0.425458 0.304639 0.719464 -0.495446 0.162310 0.390932 -0.017178 -0.745947 -0.419391 -0.595788 0.146599 -1.346554 0.562724 0.948342 0.299010 -0.816776 -0.396399 0.635212 -0.313333 0.135195 -0.004940 -0.864102 -0.954564 -0.580354 0.350391 -0.012544 -0.479900 0.004284 -0.636664 -0.468667 -0.513037 0.258610 -0.103258 0.516530 0.386650 0.385736 -1.125614 -0.023881 -0.052497 0.709222 0.179247 -0.067788 0.363702 -1.073689 0.266538 -1.417869 1.121808 0.115271 0.011941 0.561821 -0.642419 -0.520754 0.171366 0.179409 0.222895 0.212631 -0.214944 -0.214867 -0.408521 -0.189428 0.130181 -0.933703 0.465187 -0.015689 0.453397 -1.334265 0.816879 -0.149100 -0.140039 -0.228406 -0.285324 -0.117316 0.340135 -0.535013 -0.026673 0.786740 0.223412 -0.558038 -0.001396 0.255484 -0.468216 -0.843792 -0.411951 0.071644 -0.187685 0.236526 -0.988857 0.668358 
der -0.901652 0.338304 -0.835165 -0.158163 -0.089795 -0.889789 0.041683 -1.134491 0.043791 0.392846 0.757200 -1.636926 0.824642 -0.189267 -0.331105 0.397201 0.874043 -0.514977 0.823163 0.105739 -0.202975 1.330637 0.804315 -0.465697 0.291013 0.355589 0.828270 -0.124332 -0.647203 -1.031708 -0.334055 0.290031 -0.564433 0.064292 -0.864815 -0.435689 0.074426 0.598061 -0.028545 0.957320 0.487414 -0.036394 0.031083 0.418337 1.159006 0.128322 0.608115 0.394866 0.336613 0.271583 -0.819572 -0.657632 -0.797691 -0.565449 0.253783 0.037133 -0.118786 0.507602 1.144540 -0.617112 0.340806 -0.120080 0.497908 -0.562829 0.788393 0.204365 -0.111788 0.221052 0.030867 -0.101793 -0.355281 0.372978 0.800498 -0.558144 0.161929 -0.734678 -0.688444 0.049528 -0.373994 -0.125425 -0.703996 0.447091 1.141916 0.080676 1.232295 -0.701795 -0.122251 -0.994769 -0.061419 -0.952011 0.067460 0.144923 0.164431 -0.598719 0.410028 0.312807 0.862042 -1.309422 0.122896 -0.228564 
die -0.754634 0.450422 0.084262 0.839401 -0.415824 -1.574259 -0.297305 -0.791933 -0.212550 0.442923 -0.163306 -0.307440 1.082452 -0.269333 -0.610501 -0.160514 0.545924 -0.768237 1.247397 -0.332879 -0.433641 0.586066 0.406323 -0.005614 -0.099282 0.083343 0.563531 0.064200 -0.047538 -0.476614 0.320689 -0.403636 -0.430759 0.632190 -0.523910 0.009632 0.496702 -0.235944 0.727581 -0.252610 -0.345868 -0.915370 0.239446 0.914511 1.122631 -0.735929 -0.079043 0.501077 -1.103925 -0.151350 0.340429 0.249508 -0.542619 -0.538866 0.194573 0.009398 0.147178 0.270963 0.723865 -0.531113 0.991859 -0.298028 -0.415877 0.083166 0.697531 0.496444 -1.217921 0.076607 -0.571052 0.255963 0.680767 1.311746 -0.407280 -0.650047 -0.403607 -1.177790 -0.698495 -0.703215 0.562939 0.761294 -0.536483 1.033015 0.554319 0.373575 0.991299 -0.728238 -0.221768 -0.522391 0.059734 -0.900500 1.293983 0.016425 0.455749 -1.512698 -0.692415 0.114100 0.826209 -0.632391 0.291543 -1.196841 
in 0.360609 0.517440 -0.470091 0.178277 0.423293 0.646397 0.443826 -1.169436 0.132103 0.994411 0.731549 -0.557539 0.429904 -0.333587 -0.039596 0.696802 -0.043947 -0.109860 1.725448 1.040707 -0.896003 1.289209 0.951783 -1.337695 1.275449 -0.840684 -0.188998 0.129826 -0.755233 1.014706 0.155777 -0.789486 -0.126328 0.324757 -0.197870 0.074956 -0.457208 0.293139 1.020624 0.003601 -1.073010 -1.231617 -0.826001 -1.013562 -0.791079 0.777088 0.107134 1.020666 0.057462 -0.368118 -0.770980 0.496755 -0.654403 -0.214032 -0.558737 -0.687720 -0.010956 -0.027442 1.408905 0.706607 -0.158123 0.095147 0.510588 0.411917 -0.632088 -1.336899 0.609020 -0.243461 0.290311 1.044647 -0.150950 -0.174215 0.483892 -0.857082 -0.148816 -0.010802 0.254308 -0.359467 -0.378243 1.406355 -1.669660 -0.655889 -0.224440 -0.432154 0.084562 -0.563104 0.568161 0.267596 1.067222 0.556595 -0.490934 0.545806 -0.737842 0.455317 -1.127231 -0.302618 0.386409 -0.434489 0.578321 0.196003 
und 0.076309 0.163660 -0.468221 -0.207039 -0.052381 0.482896 0.177170 -0.190862 1.023688 -0.206128 -0.613667 0.246280 0.779885 0.344334 1.251077 0.110059 0.358970 -0.306321 0.829508 0.241937 -0.712423 -0.673937 0.684294 -0.196482 -0.181593 0.405089 -0.079844 0.038086 1.462084 -0.685463 -0.280175 -0.499965 1.108670 -0.089287 -0.319007 0.366432 0.676356 0.819600 -0.000392 -0.618304 -1.016826 -0.289206 0.013907 0.962468 2.182870 0.333571 1.235143 0.061605 0.922629 -0.372739 -0.509740 -1.147264 -0.327948 0.727920 0.092037 -0.865797 1.004042 0.539518 -0.326947 0.361665 0.167700 -0.850703 -0.323972 0.590033 -0.359337 0.178720 -0.172038 0.090357 0.798129 -0.571614 0.503911 0.245300 1.551078 1.065692 -0.375375 -0.091198 0.338009 0.461666 0.283220 0.458480 0.531794 0.193913 1.129149 -0.346761 0.349591 -0.234340 0.622244 -0.798800 0.625461 -0.575741 -0.012077 -0.827870 -0.036561 -0.360944 -0.333666 0.103222 -0.299138 -0.726826 0.789061 -0.561416 
von 1.146065 0.656994 0.023223 0.004758 -0.477117 -0.550186 -1.321329 -0.755951 -0.423969 0.984166 0.305868 0.496746 -1.642278 -0.002397 0.247601 -0.307752 -0.377875 0.337137 -0.236354 -0.495113 -0.963114 0.571366 1.275339 -0.318054 1.191501 -1.333627 0.667455 0.794857 0.528993 0.221262 1.079146 0.784620 -0.709675 0.023296 0.035917 -0.363140 -0.879489 -0.283902 0.907813 -0.310869 -0.835208 1.286716 0.473170 -0.372146 0.077051 1.342378 0.442597 -0.361080 1.229969 1.547604 0.639755 0.081274 0.252942 0.624320 1.700539 -0.195558 -0.264628 1.441875 1.718197 0.392746 -0.816628 -0.144786 0.049698 -0.826926 -1.162018 0.240887 1.694380 -0.588447 0.199551 0.212958 -0.225968 0.613681 -0.397855 0.022166 0.622566 -0.561683 -0.350561 0.949662 -1.041544 -0.326064 -1.035794 0.262010 0.902425 0.108967 0.713594 0.261678 1.679470 -0.899435 0.439198 -0.123288 0.496905 0.215088 -0.903356 -0.936127 -1.050111 -0.027488 -0.727396 0.429248 0.389378 0.183701 
auf 0.200744 1.914774 0.659282 -0.010522 -0.244243 0.385997 -0.355682 -0.666195 0.357269 0.852130 0.431253 -0.229287 0.073272 -0.268077 0.009155 -0.306150 1.201521 -0.227888 0.046711 -1.205681 -0.227682 0.732192 0.393458 -0.633297 -0.715852 1.112628 -0.194754 -0.369486 0.786956 0.756778 -0.638937 0.225864 -0.155488 -0.897130 -0.913509 0.081064 -1.044987 -0.288857 1.069160 -0.415177 -1.001282 0.361069 0.882959 -1.753413 0.660065 -0.045584 1.248688 0.640580 -0.390334 -0.427166 -0.497836 0.228968 -0.343450 0.476453 0.597435 -2.008343 -0.612134 -0.619596 0.595129 0.719680 0.896510 0.942634 -0.250222 1.215775 -0.217449 -0.255155 -0.194833 -1.331856 -0.217983 0.060571 -0.683765 -0.343429 -0.424454 -1.249695 0.190066 -0.950040 -0.708343 -0.780800 -0.584155 -0.784952 0.360940 -0.352976 -0.642679 -1.569482 -0.312231 0.636212 0.750911 -0.075293 1.077327 -0.646837 -0.503464 -0.249194 -0.390381 0.949185 0.617733 1.193881 -1.242998 0.033206 -0.141137 0.228990 
ist 0.913442 0.043600 0.025369 -0.220064 0.629365 -0.556698 -0.817627 -1.003227 0.321330 0.668876 0.077144 0.272011 0.752052 -0.491740 0.093877 0.786541 0.681812 -0.584627 -0.004479 -0.725272 -0.880301 1.046497 0.345922 -0.964464 0.007180 -0.966927 1.400700 -0.326241 0.667227 0.710560 -0.450399 -0.055663 -0.364207 0.058021 0.453609 -1.127471 1.734930 -0.320798 -0.573334 0.361983 0.055883 0.458433 -0.465844 -1.029938 0.391956 -0.823298 1.678435 0.023849 0.562592 0.594015 -0.395083 -0.199421 -0.181267 -1.695068 -0.563341 -0.316054 0.681597 0.364640 0.347213 -0.037002 0.443312 -0.000293 -0.356974 -0.159250 -0.469243 0.317421 1.355727 0.580771 1.448158 0.501278 0.063766 -0.214697 -0.079310 -0.260632 -0.309151 -0.488463 0.882387 -0.338391 0.363859 0.275489 -0.458350 -0.633114 0.206935 0.170715 0.548817 -0.147101 -0.959095 -0.224577 -0.577022 -0.099921 -0.041260 -0.588787 0.311633 -1.293165 0.755015 1.526449 0.667683 -0.767180 -0.284103 1.254624 
für 0.647377 0.119500 0.776440 -0.145632 0.257865 -1.081242 0.057205 -0.301206 1.461209 0.184063 0.276291 0.318515 0.428519 -1.016877 -0.336251 0.754804 0.380357 -1.894292 0.396452 -1.119310 -0.367393 0.383077 1.561601 -1.863502 -0.276073 -0.668030 0.114599 0.199184 -0.464643 -0.026985 0.606918 -0.287135 0.180660 -0.015485 -0.340255 -1.181537 -0.644768 0.747479 0.862307 -0.510584 1.263115 0.037259 1.061801 0.031366 0.005659 -0.668361 0.918995 -0.176704 -0.876280 -0.395159 -0.526260 0.149144 -0.979638 0.354079 -0.377157 -0.520097 1.605093 -1.070295 0.290210 0.934520 0.769845 0.388889 1.082616 -0.927899 -0.481118 0.501830 0.121303 -0.666091 0.585383 -0.481347 -0.079527 -0.740209 -1.550324 0.245689 -0.480232 1.433551 -0.672142 -1.106553 -0.622029 -0.733401 0.603416 -0.103345 -0.469448 -0.341970 0.759296 0.463543 0.237117 -0.020736 -0.796761 0.028870 -0.962274 -0.753684 -0.951567 1.427876 0.042886 -1.641250 -0.565750 -0.117736 0.039120 -0.137513 
das 0.062174 -1.123468 0.355224 -0.017840 0.240017 -0.756852 0.258632 -0.606925 0.040717 -0.876854 0.448982 -0.181904 0.628927 0.447116 0.990870 -0.215424 0.680866 0.714438 0.480977 -0.512934 0.325689 -0.262424 0.443932 -0.929297 -0.536127 0.255220 0.521681 0.722483 -0.074520 -0.168674 -0.549558 -1.922567 -0.632683 0.430852 0.317398 0.353812 0.703211 -0.438313 0.240018 -0.702722 0.337848 -0.500328 0.255894 1.414818 -0.631394 0.858201 0.587022 0.103724 -0.683133 1.031880 0.024264 -0.770715 -0.281563 -0.393594 -0.342887 -0.325835 0.133578 -0.065670 0.274521 0.703006 0.685703 -0.222810 -0.290887 0.047013 0.214500 0.692332 -0.463157 1.032463 0.100759 0.239177 -0.626089 0.904282 -0.022058 -0.526250 -0.102333 -1.124456 -1.294465 -0.666242 -0.710739 -0.371210 0.402745 0.608831 1.005252 -1.807326 0.856238 0.339554 -0.634052 -0.347122 0.009931 -0.605094 0.754462 0.474578 0.013379 -0.076791 -0.869383 0.845635 1.145079 -0.240538 0.243679 -0.103268 
#nowplaying 0.560079 -0.255482 0.026610 -0.836424 -1.052633 0.338063 0.023303 0.590675 -0.799311 0.664749 0.713949 -0.036365 -0.148993 -0.966818 0.217489 -0.330886 -0.351759 0.086089 1.414629 -0.005235 -0.233708 0.389621 -0.386218 -0.790166 1.323741 1.526162 -0.014279 1.123298 -0.461945 -0.046050 -0.358730 0.202511 -0.777504 -1.544509 -0.065700 -0.292944 0.737980 -2.991054 -0.916461 -0.425271 -1.091159 0.761844 -2.179307 -1.038006 -0.472272 1.320441 0.892215 0.588277 0.053955 0.169424 1.813173 -0.643394 0.781070 -0.557365 1.112148 -1.566808 1.442954 0.564495 1.685835 -0.311782 -0.223444 -0.936993 0.342338 -0.433717 0.740635 0.952206 0.224031 -1.440073 0.806585 0.368003 -0.762490 -0.701633 0.285320 -1.052678 -0.533709 -0.247440 1.255502 1.390073 0.325742 -0.184801 0.553232 1.729667 1.744130 -1.937359 -0.107553 0.747068 0.883322 -0.197747 0.818681 -0.191004 1.303090 -0.055708 -0.407214 -0.200563 0.665428 0.796452 -1.509292 1.680900 0.269146 -1.248444 
mit 0.324860 -0.416402 0.549227 -0.443538 -1.037592 -0.354979 -1.027688 0.465720 0.592510 0.319064 -0.585230 -0.251930 -1.058764 -0.604002 -0.223107 0.238821 -0.325569 0.010972 0.765004 -1.024880 -0.373340 0.368170 0.287334 -0.374690 -0.166297 -0.393847 0.151843 0.011148 0.429512 0.223636 0.169937 -0.519725 -0.653787 -0.229873 0.194473 -0.555947 -2.676653 2.586940 2.881808 1.507615 0.123513 0.869850 0.282395 -0.503063 -0.791273 0.483389 -0.365591 -0.110751 -0.255762 0.366674 -1.286574 1.107818 1.228886 -0.274785 0.276808 -0.870828 0.339298 -0.142365 -0.050294 -0.924783 0.601517 -0.654030 -0.105337 0.677165 0.036845 1.862844 0.719294 0.469421 0.555969 0.502114 -0.820825 1.007985 0.442446 -0.122140 -0.251627 -0.408206 -0.169266 0.825994 -0.132116 -0.144098 -0.561485 0.832638 0.225772 -0.829323 -0.498983 -0.534475 0.882555 -0.912276 0.745088 -1.663688 -0.807273 0.699015 0.188865 0.466078 0.745083 0.512380 0.049153 -0.323616 1.005923 -0.684366 
den -1.131020 0.669528 -0.376211 -0.548002 -0.313036 0.817159 -0.526949 -0.193205 0.045907 -0.676661 -0.014645 -0.264312 -0.503449 -0.767568 -0.577633 0.471755 -0.674498 -1.046884 -0.603034 0.224350 -1.019973 0.180827 1.905931 -0.413233 -0.830712 0.080076 -0.623595 -1.034570 -1.076373 -0.404099 0.494493 0.032802 -0.553847 0.488296 -0.414959 0.399472 -0.041006 0.457220 -0.476038 -1.139078 0.496806 -1.225323 1.480290 0.923598 0.591106 0.116150 0.904030 0.257082 -1.157123 0.580794 -0.775372 0.511370 0.539440 0.149967 0.651688 0.834066 -0.299850 -1.266543 1.321304 -0.620912 0.187055 -0.313535 -0.237511 -1.652883 -0.338869 1.462516 -0.537868 1.897974 -0.268182 0.228646 0.684767 0.226211 0.718164 -1.811864 -0.308479 -0.493311 -0.023139 0.022891 -1.267685 -0.045146 -0.914107 1.271116 0.165306 0.727147 -0.440957 -0.728189 0.474013 -0.292219 2.173904 -0.428465 -0.042320 -0.125636 1.241767 -0.645109 -0.334303 -0.778980 0.085512 -0.852865 0.766454 -1.051098 
ich 0.961094 -1.130768 1.714072 -1.255827 -0.175440 -0.510347 -1.634416 0.118726 0.634024 -0.384508 -1.115651 -0.377141 -0.699935 -0.287235 0.303752 0.930530 -0.118363 0.956853 -0.359574 -2.480464 -1.465854 1.194902 0.326751 -0.757081 0.500720 -0.059758 0.230611 -0.424146 1.224660 0.183201 0.255097 0.782815 -1.260602 0.757289 -0.332941 -0.719103 1.840096 0.083055 -1.678832 -0.824689 -0.528668 0.060139 -0.620814 0.159095 -0.993787 -0.143661 -0.358396 -0.688219 0.769043 -0.292801 -1.809451 2.045366 -1.044860 0.220307 -0.737214 0.700966 0.546564 -0.109771 0.732284 1.106096 2.389800 0.617663 0.728313 -0.617498 0.398047 0.647136 -0.208472 0.393378 2.305909 -1.027462 -0.807205 0.335611 0.908064 -0.510427 0.300861 -0.561569 -1.320448 -0.015312 -0.886644 -0.874471 0.578276 -1.211264 0.848678 -0.329837 -0.099639 1.428177 0.133369 -0.913178 0.658423 0.434675 1.216261 -0.840065 0.819483 1.176979 0.689651 0.921212 1.485015 0.471166 1.044378 -0.862269 
#radio -0.580045 0.926028 -0.109671 -1.335449 -0.040565 -0.775381 -0.073707 0.916766 1.226407 -0.283373 0.026353 0.774724 -0.054164 -0.056875 -1.262806 2.198086 -0.613997 1.159865 -0.037306 0.073187 -0.819366 -0.542597 -0.533295 -1.802905 -0.226597 2.752391 0.188634 0.015617 0.950725 1.072745 0.583648 0.946961 -0.777145 1.222464 0.138029 -1.191598 0.701177 0.346600 -0.234448 -1.439787 -0.570059 0.059524 -0.345067 -0.524556 0.121819 -0.255692 -0.745823 -0.040164 -1.471277 1.319342 1.080957 0.722631 2.328500 -1.621586 -1.103269 -2.416930 -1.671537 -0.856366 1.350035 1.192047 2.342800 0.486217 -0.626465 2.073290 1.140805 -0.101226 0.379272 0.489007 -0.787955 0.611403 0.091554 0.393949 2.700483 -2.108855 -0.073604 0.393159 -0.338239 2.121017 -0.338385 -0.844762 0.311982 0.655292 1.985414 -1.023030 -0.578041 -0.573810 0.230896 0.582437 1.087166 0.792060 0.114926 -1.068540 0.397212 -0.127353 -0.287753 0.774523 -1.607155 0.108880 -0.795277 0.956620 
#deutschland 0.114349 0.122353 -1.184931 -1.766196 -1.561618 -1.284611 0.436203 0.350324 0.958644 0.002269 0.522964 -1.197649 -1.231900 0.267921 0.501372 0.674320 -0.277522 -0.126995 1.709270 0.528954 0.296420 -0.321919 0.610799 -0.810252 0.323383 0.466070 -0.075703 -1.004009 0.137305 0.654521 0.647736 0.181240 -0.727722 -2.281251 0.209733 0.457840 0.624852 0.122383 0.425696 -0.194686 1.794493 -0.313918 0.009979 -1.021602 0.385690 0.830648 0.652312 0.491343 -1.096925 -0.489411 0.771232 -1.679990 -0.533876 -0.333278 0.015390 0.203944 0.679270 -0.091741 -1.634261 2.236233 2.122782 -0.992933 0.909842 -0.357302 0.181329 -1.299209 -1.629589 -0.789342 -0.626809 0.564241 -1.639334 0.334194 0.338357 -1.660128 -0.189232 0.117253 1.219549 0.126725 -0.177934 -0.206660 -1.365633 -0.318639 0.766286 0.860500 -0.593118 -0.572215 0.588718 -2.286556 -1.247723 1.518622 -0.972118 -1.844176 0.174281 -0.222179 -0.189780 -0.983833 0.838455 -2.309096 0.822865 -0.706802 
#bild 1.314507 1.042405 -0.262387 0.320503 -1.565118 -0.545859 -0.430148 1.996543 0.469644 0.288187 0.575123 0.604765 -2.006199 -0.447153 1.405270 -0.574670 0.139895 0.994623 0.568530 -0.840219 0.271041 1.344936 0.355551 0.404516 -1.119911 0.369389 -0.219806 -0.884944 0.040109 0.613522 -0.547256 0.244372 0.026166 -1.097607 -2.197327 -0.063961 -0.131795 0.680590 -1.176708 0.002495 1.022041 0.258398 -0.023697 1.050429 -0.647389 -0.035973 1.555991 1.050114 -1.215230 0.661782 0.842651 -0.277365 0.279876 1.212172 0.379048 -0.998349 1.448738 0.623918 1.654587 0.168217 1.161353 1.111212 -0.235252 -0.076834 -0.463987 -0.373161 -0.277394 -0.456932 0.417930 -1.163840 0.016467 -0.786294 -0.368440 -0.596603 0.572392 -1.149133 0.722437 -0.984522 0.828215 1.565569 -0.583581 1.373039 1.328602 -0.001968 -0.637923 -1.432387 -0.337922 0.244488 -0.959271 -1.107602 -1.357272 -0.184024 -0.459828 0.435940 -0.413115 -0.278120 0.675594 -1.669505 -0.363894 -0.174790 
#lanz -0.001134 -0.902115 -0.561011 0.021513 -0.728153 -0.959571 -0.226267 0.688206 1.282470 0.189144 -0.209656 0.825325 0.209559 -0.364849 0.631692 -0.072904 -1.172309 0.158882 0.584749 -0.655801 -0.266772 2.009310 -0.351315 0.071111 0.116882 -0.088064 1.062098 -0.296802 0.531294 0.930318 -0.537804 0.342296 0.246247 0.478696 -0.278057 -0.273825 1.184506 -1.376865 -0.245476 -0.709269 0.948800 0.962072 -0.242843 0.271706 0.573653 -1.156762 0.497284 0.695357 -0.212303 0.070698 -0.247616 0.230863 -1.056085 -0.935052 -0.983652 -0.539861 0.265938 -0.187411 1.717338 0.177613 0.057406 1.186964 -0.065642 1.139548 -0.251011 -0.020480 0.271535 0.091056 -0.394811 -0.517805 0.631641 0.023065 1.019037 -1.200611 0.594059 -0.483363 -0.416403 1.355148 -0.585254 -0.615018 -0.022886 0.076676 0.568834 0.051201 -0.153709 -1.355329 1.672712 0.342233 -0.318228 -0.840272 0.844965 -0.849359 -0.912388 0.195412 -1.453736 0.805846 1.050912 -1.491220 0.750882 -1.001595 
im -0.055062 -0.587444 -1.989493 0.462252 -0.129728 1.401941 1.308412 -0.468983 0.202348 -0.200157 -0.273649 -1.093061 0.684975 -1.455236 -0.448040 0.227089 0.647794 0.212890 1.202005 -1.603598 -0.853156 0.061859 0.558817 -1.037744 -1.549323 -0.432489 -0.826466 0.833981 -0.089359 -1.556296 -0.857647 -1.379719 -0.755090 -0.029024 -0.495618 0.575262 -1.688975 -0.628398 -0.187986 0.246340 0.952395 0.405208 0.571091 -0.288962 -0.701079 1.099262 1.328093 -0.822507 0.009102 1.716613 0.107819 -0.617040 1.088771 -0.259974 0.595895 -0.473072 0.696752 -0.912473 0.542156 0.341951 -0.940110 -0.290758 0.222699 0.084231 -0.202299 1.067557 0.044335 -0.828475 -1.204491 0.769711 1.148074 0.981985 0.495877 -1.463488 -1.187981 -0.084737 1.293223 1.362058 -0.807513 0.614670 -1.878657 -0.875718 0.259209 -0.183806 0.330812 1.480844 -0.091245 0.202575 0.419758 0.380977 -1.090125 0.113563 -1.419544 -1.039778 -1.126405 0.069230 0.249116 0.695471 -0.093690 -0.309549 
bei -0.045530 0.827067 0.308317 -1.059922 -0.657659 -0.711812 0.850153 -0.434199 0.909543 -0.446731 0.480283 1.024344 0.300556 -1.593573 -0.543884 -1.460596 -1.364531 1.394753 -0.287928 -0.599731 -0.227613 1.576453 0.084237 -0.430043 0.710039 0.584773 0.825580 -0.835887 1.550663 -0.526962 -0.320558 -0.603651 -0.101182 0.456873 0.060948 -0.130126 -0.705924 -0.965472 1.010471 -0.795448 1.195432 0.852245 0.441617 -1.389967 0.753857 -0.650084 1.409828 -0.054918 0.747349 0.080848 -0.849092 0.326011 -0.773649 0.080368 -0.277499 -0.220991 -0.460430 0.952384 -0.117284 -0.481591 -0.093218 -0.436199 1.017495 0.318467 -0.221939 0.527152 0.042304 -0.756791 1.068024 0.289826 0.052754 1.188056 -0.092851 -1.215613 0.206045 -0.603490 -0.656936 0.018659 -0.075909 -0.237695 -0.113457 -0.561193 -1.075587 -0.166449 -1.161757 -0.020926 -0.839812 0.123687 0.764276 -0.088395 -0.285235 -0.132998 -0.221901 0.590986 0.026158 -0.704313 -0.867412 0.016427 0.549388 -0.598062 
#germany 1.090155 -0.347351 -0.729781 -1.409451 0.260938 -1.232323 -1.010246 0.372543 0.248298 0.141486 0.734222 0.244383 -0.661657 -0.299834 0.324989 0.144931 0.954937 0.044176 0.391900 0.915876 0.206333 1.576536 0.922386 -1.014871 -0.902605 0.292013 -0.441234 -0.579213 -0.921896 0.547971 -0.089109 -0.122924 0.118782 -1.629297 -0.815585 0.296523 1.549927 -0.552058 -0.203425 -0.537025 0.397620 -0.491582 -1.855133 -1.630717 -0.148062 0.990784 0.352228 1.321179 -1.044228 0.200181 1.566245 -1.240339 -1.980714 -0.431281 -0.765235 -0.139732 -0.587310 -0.432755 -0.529464 0.075681 0.385215 0.849716 -0.508877 0.063846 0.687007 -0.932548 -1.252652 -2.164424 0.958931 0.791191 0.172453 0.262541 1.452172 -0.697971 -0.967142 0.558663 0.776788 0.528826 0.044525 0.955710 -0.118223 1.622194 -1.877007 0.291383 -0.908831 -1.553360 0.209142 -0.334714 0.434891 -1.156942 -0.722474 0.116670 0.697804 0.607683 -0.613068 -0.553837 -1.534222 0.212731 0.186847 1.922525 
jetzt -0.444962 1.456668 0.070014 -0.594904 -0.515967 0.437911 0.258639 -0.528452 0.965710 0.386667 -0.500716 0.498067 -2.011233 -0.797971 -0.137404 0.646847 0.090799 0.568129 0.107444 0.072177 -0.333918 0.347991 -1.153465 -0.816917 0.095450 -0.180054 0.140341 -1.296447 1.033605 -0.020312 -1.511524 -0.198350 -0.192969 -1.001842 0.589416 -0.209514 1.131872 -0.060943 -0.348100 -0.175400 -0.868523 0.015981 -0.080525 -0.771658 0.719972 -0.768333 0.777712 0.226621 -0.042325 0.357004 -0.122071 -0.229359 0.418316 0.698463 -0.092341 -2.459839 -0.711163 -0.871877 0.771478 0.288404 0.775549 0.321801 -0.385137 0.724210 0.154073 0.941355 0.377064 0.560639 0.065874 -0.041269 -0.912820 0.753125 0.497078 -2.826906 0.873765 -0.765228 -0.304068 0.056662 0.206335 -0.372385 -0.607291 0.532691 -1.613754 0.787550 0.471608 0.442580 0.631429 -0.826184 -0.537946 0.914563 0.051205 0.774820 -0.908925 -0.211063 -1.480032 1.251989 -1.173017 -0.330911 1.146627 -0.378748 
ein 1.260177 -0.243678 0.613643 -0.160290 -1.013523 -0.957340 0.629134 -0.162860 -0.717215 1.392872 0.071602 -0.915290 0.375149 -0.969743 1.450307 -0.075790 -0.234013 0.004232 0.746771 0.021160 1.700953 0.144097 0.826506 -0.124180 -1.960756 -0.606967 -0.410078 0.089611 -0.567109 0.234656 -0.976395 -0.571839 -1.107511 0.096392 -0.948702 1.528228 0.229486 -1.186864 0.308310 -2.006516 0.538791 -1.405802 1.058565 1.095862 -1.007715 0.857274 -0.736059 -1.694749 -0.510915 0.722966 -1.041401 -0.595468 0.673268 -0.941094 0.136357 -0.207771 1.095709 -0.268719 0.524019 0.279699 -0.335366 -0.967450 -0.967744 -0.980788 -1.086315 0.397871 -0.840918 0.858417 0.540028 0.345306 -0.879857 0.554181 0.804686 -1.706590 -0.122764 -0.543695 -0.139757 -0.745995 -1.368410 1.542304 0.320846 -0.116008 -1.412795 0.277119 0.246521 -0.283912 0.352057 -0.209531 -1.621582 0.309963 -0.216936 -0.715215 -0.674462 -0.488421 -1.350252 0.698770 -1.486679 -0.246783 -0.039404 -0.378523 
#ccb14 -0.360152 0.188698 -0.399115 -0.944637 -1.358103 -0.660704 0.036857 1.182955 1.752827 0.016157 -0.018895 0.810394 -0.673302 0.443100 0.054477 0.869297 -1.310346 1.087114 0.718522 -0.713507 -0.457636 1.117527 -0.229802 -0.926892 -0.595562 0.639802 1.689382 0.807884 1.283103 1.112225 -0.166561 0.176773 0.409555 0.085235 -1.167867 0.995311 -0.240654 1.011204 2.033341 0.163481 -0.365320 -0.192073 -2.629040 -0.940041 0.228071 -0.123427 0.635883 -0.524335 0.148939 1.482550 0.881525 -0.289565 -0.947826 -1.471957 1.417426 0.739510 -0.201299 0.148197 -0.230611 0.303752 1.105278 -0.721795 -0.415246 1.573529 -1.195909 1.783423 -0.852951 0.486528 0.803562 -0.030737 0.424178 0.653398 0.631783 -0.682792 0.241146 0.094793 -0.403103 0.442268 0.450417 -1.214585 0.152501 0.178310 1.201863 -0.405626 1.091091 -0.443976 0.701165 -0.347313 0.755628 0.211318 -0.553922 -1.051463 -1.044413 -0.053806 -0.810426 0.609415 -0.482636 -1.321064 2.172798 1.232644 
#stuttgart 2.417452 -0.663933 -0.960868 -2.061152 -1.553308 -0.888255 0.565194 -1.017836 0.606114 -1.839160 0.021775 0.562858 -0.259277 0.042581 0.803223 1.389043 -0.941571 0.246335 -0.189642 0.889316 0.244714 1.334890 0.407239 -1.104343 -1.439036 0.759230 0.071590 -0.140499 -0.079985 -0.014202 0.009086 -0.746058 -0.794666 -1.234692 -0.981216 0.356659 0.739271 0.866097 0.512750 -1.945346 0.209318 -0.217681 -1.557612 -0.130046 1.255626 0.387445 0.567532 0.888542 -0.175887 0.789775 -0.019976 0.460585 -0.436600 -2.790475 -0.476514 0.587913 0.549618 -0.267426 -2.581003 -0.042673 1.280871 -2.290890 0.754069 -0.064659 -1.007785 -0.158315 -0.795471 -0.277491 -0.431294 0.129004 -0.076250 -0.167598 0.347678 -2.028544 -0.340016 -0.835834 0.303127 -0.162977 0.173750 0.107096 -0.704145 0.253294 1.211211 0.153431 -0.809702 -1.004760 0.429848 0.948521 1.632061 1.132102 -1.018760 -0.326754 -1.208214 0.715555 -0.364411 1.243185 0.130937 -1.140536 0.655122 0.577944 
nicht 0.095557 -0.601642 1.196217 -0.536120 -0.511769 0.339268 0.584149 -0.876423 0.320965 -0.666625 -0.950935 0.566384 0.418140 -0.576502 -0.318275 -0.085646 0.503141 0.168902 2.055292 0.272888 -0.538802 0.594280 -0.599160 -0.620648 -0.780592 -0.558958 0.004941 -0.225466 1.486702 -0.943847 -0.061748 0.573465 0.133472 0.117217 0.193884 -0.553228 0.677744 -0.402781 -0.607256 -0.261634 2.005008 -0.133455 0.180755 -1.160576 1.325307 0.943298 0.468589 -0.566447 0.325243 -0.016447 0.766221 1.481331 -0.951845 -0.327133 0.574416 0.034711 -0.426002 -0.793438 0.199175 -0.521309 0.412839 0.065303 -0.755774 -0.035167 0.661140 0.889216 0.366480 -0.050918 0.847623 -1.253605 -0.820999 1.599437 0.375033 -1.197651 0.663060 -0.837087 -0.172367 -1.068843 0.186549 -0.793336 -0.230885 0.759887 0.638607 -0.120412 -0.304980 -0.442018 0.334183 -0.456278 0.823949 0.670524 -0.893519 0.227004 0.216789 0.011521 -0.704496 0.043536 0.741017 -0.682432 -0.041201 -0.143829 
#ard 0.454290 -0.900373 -2.369944 0.563243 0.526046 0.787255 -1.365285 -0.156398 -0.035361 -1.301084 0.676051 0.734745 -0.608838 -1.253683 1.099490 -0.069753 -0.684353 1.192173 2.092711 -0.395255 -1.214357 1.697959 -0.855640 -1.341654 -1.138327 0.600568 -0.373144 -0.002524 1.179901 -0.625750 1.174147 -0.322429 0.687708 -0.969544 -0.400117 -0.965519 0.068940 -0.596597 -0.280161 -0.568976 1.483714 -0.143355 2.000767 -1.200118 0.737665 -0.592552 0.648687 0.048890 -1.643848 0.050912 -0.635540 0.147423 -0.925205 -0.763205 -1.316265 -0.471239 -0.172466 -0.670313 0.606661 0.528691 0.483189 1.885684 -0.433665 0.340179 0.353796 -0.347561 0.055853 0.919377 0.506185 0.976137 1.466740 1.216235 0.250105 -1.896140 0.708171 -0.511785 1.063506 1.097668 -1.455704 0.179489 0.579125 0.448241 -0.032473 -0.226082 -1.351864 -1.363662 1.067321 -0.235159 0.063465 0.589839 -0.342771 -1.197256 -0.337214 -1.470001 -0.309718 1.091273 0.329602 -0.837558 -0.172601 -1.398607 
zu -0.143582 -0.719422 -0.153033 0.338918 -0.383680 -0.812245 -0.147042 -0.333667 0.040991 -0.334950 0.126145 0.629389 -0.206913 -0.836571 2.356471 -0.149224 0.010097 -1.555629 1.452589 -3.129350 -1.287757 1.637971 0.955044 1.572932 -0.605370 -0.320163 0.406198 0.081489 0.970984 0.034037 -0.071640 -0.456168 -1.203473 -0.525723 -0.351047 -1.199272 -1.473466 0.978823 0.636423 0.547807 1.216918 -1.329500 -0.427061 -0.215850 0.400695 -0.160078 0.430436 0.466175 -0.126900 -0.182528 0.836598 0.825551 -0.476292 1.312549 0.223811 2.072018 0.816063 0.040775 -0.123509 0.688984 0.649890 -1.283829 -1.881888 -0.475942 -1.549218 0.696830 0.801572 -0.644015 0.205596 0.250828 0.802849 0.162364 0.041996 -0.202747 -0.239149 -0.647278 -0.672961 0.016167 0.108936 -0.389868 1.075743 -0.305560 1.115962 -1.588435 -1.421942 0.875492 0.772403 -0.689082 -0.462926 -0.242570 0.302129 -1.085448 -0.119627 0.182119 -0.837479 -0.694390 0.116024 -0.532316 0.273612 0.361710 
#fcb 1.285306 0.348097 -0.902903 0.065114 -0.633315 -0.719618 0.557395 1.578197 0.838983 -1.100441 -1.032216 -0.682065 1.008448 0.938558 -0.339278 0.294020 -0.047047 0.480533 0.463102 -1.319823 -0.340125 0.892318 0.269124 -0.400199 -0.275516 0.927614 0.437981 -0.502391 -1.043430 0.547583 -0.623766 -1.087412 0.724712 -1.037729 -1.493749 0.440107 0.690825 0.386894 -0.408744 0.085671 -0.830241 -0.729651 0.011955 -0.577577 0.080738 0.485389 0.769556 -0.746815 1.201758 0.178162 -1.107499 -0.321183 -1.518026 -0.117839 0.535453 0.726359 -0.887632 -0.159558 0.301568 0.578546 0.550580 -0.254201 0.087744 -0.565666 0.941703 1.193338 0.177836 1.011937 -0.057016 0.124340 -0.288488 0.103574 0.101489 -1.160044 0.314552 -0.799416 0.070204 0.093122 0.459057 0.817329 -1.573900 -1.067443 0.041766 0.117136 -0.636517 -1.268682 0.955295 -1.682888 0.568661 -0.337449 0.712271 -0.426974 0.040543 0.656521 -2.040448 0.239695 0.568247 0.110459 1.615987 0.450509 
es 1.441150 -1.474187 1.548458 0.170884 -1.112309 -0.170434 1.049002 -0.814600 1.662675 -0.294950 0.210329 0.911243 -0.806150 -0.960765 -0.455512 1.505338 0.872366 0.316352 1.345706 -0.227664 -1.575139 0.395306 -0.189732 0.588198 -1.356392 -0.994946 0.686942 -0.239769 0.135809 -0.400049 -1.452752 -1.432944 -0.366733 0.626852 0.632753 -0.046982 0.373429 1.061092 0.614081 -1.190745 0.373717 -0.202995 0.862164 0.628740 0.308663 0.316677 -0.850872 -0.151960 -0.364975 0.225530 -0.557552 0.387520 -1.883381 -1.867921 -1.201780 -0.399115 0.310484 0.071029 -0.741165 0.146642 1.040124 0.852857 0.821823 0.461360 -0.215356 -0.146097 -0.162792 0.708867 -0.051669 -0.227948 -0.930817 -1.462142 0.118427 -1.018185 -0.161101 -2.051052 0.255167 -0.161059 0.191775 0.132674 0.229776 0.834790 1.202624 -0.691760 1.050436 0.728437 -0.217546 0.500713 2.176568 -1.047237 1.126620 1.283118 -0.032461 0.517637 0.471566 1.645046 1.046002 -2.819418 1.394409 0.075269 
hat 2.454225 -0.253517 -0.591426 0.057545 -0.250865 -0.573942 -0.566027 -1.184225 0.313515 0.720614 -0.419666 -0.168276 -0.067301 -0.833100 0.110403 -0.803542 0.261918 -1.652589 0.296618 -1.654207 1.889331 -0.241920 -1.271854 -1.097378 0.233515 -1.756649 0.151144 -0.536515 0.501890 0.229863 -0.104194 0.176554 -0.495860 0.217114 1.350848 -1.167084 0.087426 -1.258007 1.311216 -0.404924 0.134081 0.277116 0.350596 -1.033299 1.761745 -1.154959 0.877611 -0.351966 -0.704020 1.061027 -0.678889 0.285036 0.488185 -1.741406 0.009790 -0.678807 0.529977 0.429153 2.143547 -0.188465 0.623362 -0.099954 0.679603 -0.390390 0.529065 1.009797 2.088130 -0.039335 0.356388 -0.471843 0.842387 0.131485 1.129667 -0.336617 0.037109 -0.205425 1.150169 -0.227705 0.007237 0.652876 -0.957762 -1.841479 -0.914902 -0.313287 0.119531 -1.050500 0.062159 -0.678524 -0.574963 -0.667703 0.222633 -0.470163 -0.318665 0.895340 -1.140847 0.187174 -0.140460 -0.913922 -0.561360 0.334440 
#schweden 3.302609 -0.119553 -0.354521 -1.494773 -1.490195 -1.638672 -0.618682 -1.053273 0.726869 -0.517643 0.337431 -0.188995 0.652980 -0.551350 0.756003 1.769857 -1.273682 0.445675 0.232506 -0.091043 -1.432064 1.291848 0.822917 0.395887 -0.371230 -0.284589 0.956649 -0.624602 0.695845 0.959266 -0.950475 -1.444043 -0.413510 -2.052033 0.098047 0.319555 0.220034 -0.619128 0.470331 -0.532922 -0.445492 0.086988 0.977228 1.281418 1.302675 0.526812 -0.339224 0.138084 -0.522258 0.649585 1.707312 -0.219723 -0.893721 -2.057022 1.108731 -0.206361 -1.273568 -2.038681 0.397815 1.139415 0.955185 0.557039 0.268368 -0.693304 0.218990 -2.138379 -0.229632 1.290609 0.411588 0.044679 -1.502361 -0.795297 -0.001562 -0.806044 0.322393 -1.172490 -0.371996 -0.142810 -1.317685 0.489323 -0.177793 0.709714 3.010690 0.094687 -0.224801 -0.840125 1.771432 1.103307 0.073209 0.587948 -0.452593 -2.367173 1.162535 0.077799 -1.728781 -0.012954 0.045632 -0.838244 0.987523 -0.756698 
auch 0.931572 -0.815493 -0.247537 -0.050527 -0.816376 -0.244812 0.036386 0.737802 2.042833 0.367806 -1.080823 -0.095992 0.418980 -0.148493 0.803860 0.983213 -0.285694 -1.145361 -0.191751 0.450510 -1.937855 0.542664 1.077327 -0.408317 -0.587421 -0.034439 0.360109 -0.848116 0.631664 -0.227762 0.351863 -0.781742 -0.344710 -0.032279 -0.595081 0.445362 1.319649 -0.163447 -0.522650 -0.897368 0.963581 -0.798007 -0.239767 -0.228055 0.915630 0.505283 0.423396 0.013431 0.121658 0.335091 -0.070954 0.033632 -0.551821 -0.498721 0.015752 -0.254131 0.588728 0.052302 0.012297 -0.068737 0.449482 -0.406637 0.250975 -0.084181 -0.059138 0.353422 0.814232 1.237710 -0.412040 -0.412530 -0.797491 1.271281 0.505762 -0.346192 1.365270 -0.869397 -0.227916 0.008549 -0.354803 -0.475110 -0.352737 -1.178616 -0.383723 -1.087387 -0.407968 0.622937 -0.719094 -0.847316 0.913670 -1.444720 0.806063 0.717025 -0.553858 -0.825631 -0.612505 0.943275 0.592352 -1.281669 0.792309 -0.381025 
#l -0.499182 0.846887 0.139173 -1.070271 -1.421189 -1.541408 -0.872259 0.583571 1.887781 -2.318816 0.578833 1.013015 0.154365 -1.049888 -0.055267 0.730510 -0.914089 1.158967 0.265673 -1.399692 0.080491 1.884012 -1.225392 0.769721 0.250834 -0.579156 -0.298278 -0.325390 0.029478 0.002591 0.086801 -1.285786 -0.006560 1.038467 0.143646 -1.382130 0.255508 -0.806685 -1.480422 -2.122762 0.091759 0.019658 0.754147 -1.155902 -0.321553 -0.487319 1.149902 -0.412866 -0.106628 0.723979 1.126567 -0.272984 0.531556 -0.547578 1.877024 -0.749813 0.051003 -0.454681 0.135263 1.084814 0.965371 -0.255455 -1.493894 0.913301 -0.129720 1.060136 -0.799206 1.326744 -0.966360 -0.605821 0.804212 -0.350220 -0.367980 -1.038002 -1.035744 0.017188 0.153678 0.463380 -0.867757 -1.076221 0.318069 0.408070 -0.097853 0.239541 0.061008 -0.275748 0.855592 0.270829 -0.881819 0.616619 -0.690778 -1.391068 -0.720573 0.379903 -0.327627 0.932534 2.352153 -0.938222 1.128739 -0.024654 
wie 0.518234 -2.074125 -0.185273 1.256030 0.339736 -0.031841 0.405472 -0.159542 0.957242 0.349335 0.186531 0.864664 -0.217370 -1.538046 0.457896 0.361735 -0.728473 -0.886515 0.739025 0.662697 -0.330448 0.214050 0.416356 -1.429436 0.167647 0.985547 1.463629 -0.171478 0.665331 -0.751488 -0.094258 -0.043770 0.859070 -1.914217 0.901500 -1.130519 -0.098194 -0.775109 1.351879 0.643944 0.797345 0.365673 0.219215 -0.068490 0.093669 0.196719 0.583028 0.253998 -1.130509 1.035154 0.762756 -0.861027 -0.941375 -0.584695 0.077585 -0.448664 0.942861 -0.139245 -0.235835 -0.273930 -0.050737 0.124298 -0.394065 -1.219074 0.725331 1.786430 0.409262 1.466401 0.222753 -0.641229 -0.026296 0.021210 -0.708866 0.333523 0.373597 0.220778 -0.024954 -0.697608 -0.057036 -0.387730 0.328638 0.001711 -0.190919 -0.852167 0.116304 0.609831 1.514051 0.428914 0.841606 0.139076 0.320927 0.450990 -0.477728 -0.054212 -1.519610 0.329325 0.984404 -2.160430 1.005034 0.373131 
so 0.356598 -1.057428 0.178788 -0.196431 -1.356276 0.246480 0.138315 -0.201211 0.779820 -0.862557 -0.775641 1.021706 0.839864 -1.257547 -0.186757 1.590796 0.875804 0.395983 0.416385 0.403125 -0.860936 0.292072 0.823003 -0.781963 -0.350159 0.050916 0.446643 -0.798132 0.759594 1.074827 -0.656964 -0.814503 0.960490 -1.181272 0.275937 0.346262 -0.347437 -0.461461 -0.248447 -0.384856 0.322699 0.362967 -0.929229 -0.756939 -0.886180 0.746024 -0.543705 -0.467828 -0.655958 0.142573 -0.265042 0.992372 -0.194070 -0.892550 -1.110321 -0.345026 -0.334069 -0.997097 0.485030 0.457239 0.762531 0.960142 -0.591371 -0.787287 0.004608 1.549031 0.899053 0.645050 0.013831 0.172851 -1.380372 -0.332150 0.428496 -0.743041 -0.311724 -1.244727 0.034220 0.592334 -0.105603 1.105313 -0.240080 -0.853115 0.368305 0.987505 0.541654 1.164163 1.100329 -1.098632 0.047503 -0.266496 0.696670 -0.459479 -0.877429 0.733776 -0.164405 0.787010 0.298948 -1.245037 -0.658584 0.978763 
an -1.384653 1.934210 0.441572 -0.016569 0.042811 0.584261 -0.210791 -1.369333 1.479006 -0.813315 -1.246395 0.307467 1.007847 1.021729 -2.309656 0.698641 -1.899574 -0.983845 1.096391 -1.498526 -0.536203 0.337831 1.216804 -1.138128 -1.343630 -1.051383 1.714868 -0.594434 0.384066 0.609395 0.689405 -0.548896 -0.391862 1.019385 -1.675398 1.219754 0.010984 0.649671 0.031772 0.008511 -0.419581 0.527908 -0.697106 -1.622245 0.519038 -0.273915 0.519290 0.218001 -0.953408 0.780576 -1.548832 -0.450295 0.912748 -0.316207 -1.055267 -0.719480 -0.687073 -0.028339 -0.526312 0.126086 -0.612167 -0.031047 0.218892 -0.693450 -1.516438 0.415701 1.749838 -1.647871 1.198244 -2.156398 1.614170 -0.297529 -1.412397 -1.248335 0.985868 0.262827 0.612749 -0.027772 -0.533950 0.376399 -0.013961 2.160904 1.247833 -0.680497 -0.824603 1.145364 -0.611293 1.330992 0.074584 -1.069525 0.260445 0.387250 -2.374383 1.379762 1.122495 -0.953816 0.065718 -1.060766 1.175258 -0.510686 
aus 0.648455 0.245540 -0.319281 -0.046899 0.491387 0.472007 -1.276551 -0.632926 0.513448 -0.010257 0.846646 0.798939 0.932419 0.308152 -0.615531 -0.826629 0.474764 -1.885475 0.843953 -2.020469 -0.134838 -0.228228 0.910991 0.498322 -0.750066 -0.184978 0.683273 -1.174744 1.229903 -0.933689 0.099098 -0.353084 -1.892875 -0.545120 -0.936626 1.420573 -1.509627 -1.636629 1.630107 1.021848 -0.117969 -1.144236 -0.195358 -0.218158 -1.481416 0.237158 0.521287 0.494694 0.933867 -1.443466 -0.231725 0.230393 -0.291100 0.051792 -0.008869 -0.199809 -1.276256 1.033560 1.167410 -0.947021 0.696333 -1.044313 0.088748 0.755003 -1.032760 -0.852281 0.350955 1.008754 1.683456 -0.207834 -1.627599 -1.279977 0.541444 -0.312224 1.343787 -0.807437 2.447048 0.340950 1.272565 1.779379 0.430900 -0.359159 1.646112 -1.245646 -0.953785 0.623000 1.986986 0.596226 -0.418420 -1.471219 -1.812872 -1.319339 -0.930623 1.559766 -1.019006 -1.490853 1.062956 -1.581569 -0.377043 -0.602643 
#vw 0.606015 -0.372787 0.209272 -1.159353 -0.646128 -0.268508 1.543889 1.777300 1.491108 -0.290853 -1.767683 0.546181 -1.902748 0.715756 -0.849048 -0.151617 -1.776141 -0.996227 1.302955 -0.238901 0.301694 -2.193259 0.715514 -0.230170 -0.740517 1.048422 1.614242 0.523549 0.427844 -0.608411 1.041957 0.226721 -0.533151 -0.405213 -0.878289 -1.276127 0.503184 -0.640104 -0.905002 1.016534 0.373472 -0.502550 0.157182 0.903360 0.179130 0.426395 0.089210 0.175218 0.866820 1.164646 0.239445 -1.052385 -0.299548 -1.836768 -0.117528 -0.265044 0.556940 -1.291124 -0.619705 0.518940 0.704557 0.579774 -1.301451 -0.874718 0.326841 -0.140562 0.951284 -1.493868 -0.283756 0.010212 0.188652 1.014227 -0.245526 1.326343 -0.483573 0.166025 0.065337 0.746803 -1.843076 -0.974172 -1.300237 1.462130 1.331218 1.291491 1.603206 -1.250207 1.557665 0.132422 1.161028 0.442907 -1.969728 -1.801082 0.962720 0.182219 -1.364177 0.591223 -0.971465 -2.225763 0.858597 0.448301 
des 1.646717 1.087112 0.367291 -0.109340 0.642930 -1.068920 0.357464 -1.238539 -0.751944 0.042870 1.096764 -0.402269 1.653360 0.324600 0.870422 1.679653 0.258185 0.542790 0.852580 0.180610 -0.873213 -0.846113 1.739256 -0.748793 -0.880669 0.886744 -0.654953 0.763850 -1.283149 -0.806156 1.572163 0.014397 0.005770 0.620669 -0.361023 0.047742 -0.119625 1.363474 0.819408 -1.262022 1.202277 -0.217276 -0.325429 0.599175 -0.134356 0.025104 1.981680 -1.551967 1.366458 2.501305 0.707537 -0.989158 0.591553 0.577019 -0.355719 -0.263853 0.586786 1.309682 1.754612 2.100230 0.791418 2.154208 -0.017021 1.101364 0.045241 -0.829245 1.557664 1.248419 2.881359 0.022622 -0.451705 0.423738 0.535239 -0.949440 0.880150 0.448454 -0.131778 0.881203 0.854012 -0.914643 -1.029269 -0.496114 -0.287223 -0.592635 1.944118 1.107135 -0.209836 0.334744 -0.372220 -1.002910 1.127277 0.773057 1.124850 -2.001801 -0.650962 1.253708 -0.062990 -1.477499 -0.267003 1.352184 
sich 0.331683 -0.121313 -1.081606 -0.305167 0.697522 -1.577043 -0.586663 0.781481 1.087354 0.343643 0.039697 0.418405 0.148356 0.525057 -0.052261 -0.354950 -0.189095 -0.231972 0.464707 -1.671874 -0.296752 -2.138446 -0.232020 -0.505697 -0.248877 0.094938 0.610357 -2.196751 1.443463 -1.834861 -1.827786 -1.095869 -0.041380 -0.322224 -0.115226 0.272308 0.076158 0.248150 -1.153306 -0.573249 1.174957 0.409408 -1.342194 0.397725 0.259519 -0.486296 0.489660 0.600207 -1.247090 2.001568 -0.877536 2.764101 -0.741245 -0.339572 0.679991 -1.414070 0.861318 0.048334 0.424280 0.721044 0.354474 0.271473 -0.811341 -0.351440 0.156461 -0.793350 1.078294 2.109874 0.290176 0.705018 -0.041903 2.003123 0.378306 -1.609784 0.888239 -1.070284 1.224249 -0.417863 0.800944 1.981475 -1.036619 1.193018 0.134609 0.806583 -0.398950 -0.333661 0.709548 -0.895710 -0.167110 -0.101569 -0.099405 -0.334252 0.420952 -0.045689 -1.299228 -1.614387 0.844625 -2.090069 0.840074 -0.919889 
nach 1.463458 0.506463 -0.381026 0.251232 -0.851020 -0.831934 -0.071181 -0.238657 1.198928 -1.013141 -0.500839 -0.089764 1.255622 0.062300 -0.106991 -0.573280 1.442850 0.429646 1.457739 -0.988168 -1.697297 0.564247 0.576857 -0.509869 1.040514 0.611070 0.687218 -0.643804 0.269573 0.554271 -0.286144 -0.951648 -0.492754 -0.895398 -0.831781 0.099084 -1.320442 0.417268 4.190292 1.000238 -0.097108 -1.144134 0.342490 -2.707768 1.056772 0.696856 -2.128461 -1.738756 -0.693328 -0.818237 0.126506 1.579593 0.331944 0.122116 -1.179379 -0.482464 1.395213 -1.210692 2.070665 0.030097 -0.464962 -0.111598 0.119328 -0.165833 -0.567498 -0.948768 0.251401 1.992692 1.567887 0.846447 0.043925 -0.328775 0.880229 -2.018109 0.703878 -0.757382 -0.237034 -0.264744 -0.975122 0.985740 -0.587914 0.163961 1.587283 -0.789170 -1.007619 0.031307 -0.078276 -0.357026 0.838011 0.564890 1.122632 0.541049 1.037593 0.926488 -0.721445 -1.002213 0.600277 0.086024 1.509238 -0.824077 
dem -0.150156 -0.035728 -0.396554 0.214661 0.090073 -1.272673 0.089010 -0.649032 0.305162 -1.210680 0.578702 -0.485989 -0.270533 -1.219083 0.904787 1.053295 -1.352549 -1.455726 1.319708 -0.392584 0.561332 -1.134500 1.599057 -0.689302 0.564555 -0.329602 -0.147973 -0.458924 -0.838922 -1.410878 -1.422215 -1.421878 -1.101883 -0.109751 0.149105 -1.420807 -0.113604 1.686329 1.155772 -1.141832 -0.111366 0.886088 1.463495 0.189899 0.651638 0.402793 -0.035715 -1.018528 0.013427 1.003473 0.943291 -0.892198 -0.231915 -0.773542 0.967358 -0.687527 -0.834610 -1.059007 0.604499 -0.045640 -0.242689 0.357536 -0.922053 -0.006918 -0.811980 2.301930 -1.323352 2.740533 0.007761 -0.271445 0.221051 0.613036 1.086492 -1.417108 0.257828 -0.600594 -0.256562 0.465494 -1.064344 -0.160738 0.222735 0.330089 0.533228 -0.060710 0.102694 0.683288 1.755451 -0.304530 -0.006413 0.170093 1.481590 0.547078 1.170389 0.125595 -1.479391 0.438702 0.225418 -0.255978 -0.445991 0.429808 
" -0.482856 0.145056 -0.395426 -0.196249 -0.044671 -0.686334 0.318588 0.325487 0.645213 0.209188 0.141627 -0.454665 -0.488208 0.052618 -1.453329 0.030601 -0.004608 -0.705723 0.371608 -0.291003 -0.285060 0.099746 0.553529 0.128584 0.243384 0.681700 -0.060874 -0.668315 -0.231736 -0.198772 0.284877 -0.027048 0.268353 0.964761 0.430565 -0.870663 0.007618 0.055164 -0.793682 0.210510 0.121514 -0.219866 -0.598974 -0.476280 -0.111901 0.455942 0.018989 -0.254191 -0.482411 0.002228 0.224269 -1.501245 0.803476 0.075444 -0.389286 -0.012509 -0.656783 0.026358 1.057559 0.290794 -0.206645 0.276782 -0.767833 0.151409 -0.310999 0.627909 0.610016 0.075065 0.526228 0.369990 -0.263473 -0.109661 0.341174 -1.116862 -0.166937 -0.324213 -0.666893 -0.006562 -0.143655 0.458644 -0.582630 0.583353 -0.674079 0.087773 -0.048471 0.395599 -0.099181 -1.012699 0.444769 -1.064901 0.470716 0.182562 0.888558 0.789797 -0.750133 -0.963017 -0.380229 0.519451 0.158972 0.813543 
noch 0.461079 -0.986268 0.796258 -0.099526 -0.774764 -1.085615 1.392629 0.305822 1.087502 0.656835 -0.956844 -0.293616 1.912870 -0.738475 -0.108276 0.148485 1.456536 -0.881423 0.343700 -1.959690 -1.277142 1.302107 0.641833 -1.493775 -0.995941 0.077078 0.469792 0.330816 0.491504 0.035266 -0.496307 -0.312985 0.198146 -0.376329 0.890430 0.475709 0.452145 0.372205 0.219998 -0.643018 -0.241444 0.891380 -1.026160 -0.840979 0.038974 -0.357374 -0.348798 -0.309141 -1.147990 0.920811 0.104740 -0.419221 0.420257 -1.388330 0.506544 0.043674 1.470300 -0.118060 0.002487 -0.144281 0.722296 -0.252791 -0.644987 -0.786921 -0.458259 0.391781 -0.778351 1.364293 0.544643 -0.890356 -1.037648 -1.022636 1.447190 0.445672 -2.144306 -0.605071 0.197297 0.129713 -1.480757 0.034222 0.348768 -0.448638 -0.948518 1.068178 -0.859085 -0.476397 1.040320 -1.366914 0.249739 0.756252 -0.076180 -0.922746 0.017844 0.919800 -1.062266 -0.442846 -0.665358 -1.280730 0.234065 -0.943879 
was 0.208404 -2.125046 -0.105898 -0.428991 -0.393242 0.090158 -0.306200 -0.934927 1.659087 1.084150 0.886749 -0.467767 0.161473 0.144326 0.101601 -0.171223 0.446315 -0.745018 0.385063 0.299078 0.411200 1.075875 0.328145 -1.015873 -0.759170 1.895857 -0.114768 -0.934967 0.216910 0.231393 -1.746992 0.178189 -1.131283 -1.077778 -0.533139 1.502689 -0.309334 -0.595613 0.040565 -1.483128 0.472747 -0.951802 -0.696204 -0.605226 0.899323 0.458959 -0.356087 0.321439 -1.118668 0.289352 1.668334 0.747831 -0.207072 -0.329834 -1.193177 -0.017162 1.282127 -0.305625 -0.050855 0.454419 0.991913 -1.514175 -0.468921 -0.032633 0.449282 1.401148 0.523845 0.889640 0.723656 -0.164333 0.666393 -1.341952 -0.970344 -1.950792 0.903249 -1.114630 -1.141675 -1.132698 -1.040343 0.477254 0.048891 0.555445 -0.642008 -0.557828 -1.108278 0.172025 1.760372 -0.566722 0.295180 0.010589 0.449580 0.265411 0.535784 0.889661 -1.518592 1.168509 0.210071 -1.645276 1.001522 -0.146140 
#dfb 0.767501 0.813761 -1.297074 -0.099825 0.203095 -1.498860 -0.084294 1.046250 1.150258 -0.765401 0.101371 -1.143325 1.399392 0.876464 -0.473509 -1.927347 -2.255320 0.251689 -0.095816 -1.543555 0.609957 0.376485 -1.114701 0.515650 0.739675 1.421540 0.529853 0.572546 -0.969914 1.435941 0.620270 -0.276887 -0.125431 -1.135080 -1.060202 -0.062439 0.961868 1.135798 -0.445171 -0.360919 -0.056501 -0.341759 -1.048800 -0.407110 -0.102166 0.832505 0.478870 0.486593 -0.680077 2.010701 -0.765463 1.303001 -0.190352 -1.698432 -0.558087 -0.502603 -0.081761 -0.395171 0.815158 1.446290 0.725122 -0.463139 -0.231148 1.320774 1.330412 0.064293 0.226884 1.319057 1.544735 -0.809883 -0.153398 0.667853 0.081976 -1.396541 0.112706 0.296000 0.511337 -0.549437 0.650669 -0.153623 -1.952453 -0.671256 0.366037 0.245393 -0.416978 -1.569838 2.197375 -0.656013 -0.723473 0.180152 -0.263354 -0.586820 -0.850028 -0.457982 -2.053037 0.682498 0.250451 -1.181340 1.819250 0.409243 
mal 0.109791 0.017765 -0.543218 0.289829 0.437884 -0.419391 -0.747928 -1.659103 0.734978 -1.949095 -0.604406 0.048143 0.082771 0.814213 0.994100 0.497336 1.075024 -0.971067 0.943997 -0.732231 0.518755 0.827733 0.073824 -1.385810 0.824078 -0.172803 -0.045189 0.537069 1.233660 -0.360467 -0.079714 0.086789 -0.386939 0.157930 0.542128 -0.901452 0.329196 -1.403367 -0.400716 -0.087458 -0.572279 -0.261714 1.352767 0.674971 -0.611832 -1.025974 -0.210449 -0.071930 -0.475980 1.892730 -0.525542 0.269222 -0.518604 -0.122165 -1.370874 -0.852605 1.259803 0.046636 0.348794 -1.290029 1.770778 -1.016269 -1.325274 0.289694 -1.780644 0.857331 -1.002410 -0.245883 0.576595 -0.556297 -0.550583 -0.421270 0.812518 -1.920772 0.976487 -0.184714 0.219116 0.475243 -0.805568 0.823708 -0.187885 0.651725 1.814928 -0.846525 -0.110516 -0.773308 -0.257722 0.601030 0.006391 -0.016596 0.152222 0.541790 -0.328954 1.476468 0.199400 0.546849 0.852699 -0.996455 2.735217 0.757887 
am 0.785825 0.113290 -0.855625 1.225716 -1.460309 -0.702577 0.785803 -1.492161 -0.430106 -1.979474 -0.622031 2.156924 0.695762 1.549590 -0.050460 0.733738 2.029284 -0.365081 2.519012 -1.489743 0.031948 -0.337983 1.515961 -0.075331 -1.407004 -2.055910 0.021090 2.270259 0.055154 0.042835 -0.746771 -0.575691 -0.889642 0.235706 0.166895 0.018266 1.190976 1.047238 0.435199 -0.031354 1.330201 0.450918 0.856582 1.080311 0.215862 -0.284651 1.640975 0.669619 1.080656 1.286429 -0.263771 -2.892179 -0.941487 0.725081 0.451645 -0.041240 -1.025904 -1.187256 -1.147212 1.483168 0.601332 1.588148 0.644986 -0.398614 -2.150548 -1.476454 -0.506630 0.433989 -1.171739 -1.690775 -0.012647 1.929864 2.110523 -2.457781 -1.460945 -0.944593 1.574351 1.699088 -0.204037 -0.671653 0.490859 1.681476 -0.093786 -0.959888 -1.695595 0.797676 0.337314 -0.182470 0.604968 1.074304 -1.198425 1.597669 -0.540136 -0.036478 -0.154793 0.785079 -1.095814 0.524334 -1.695009 0.980140 
#comedypreis 0.172092 -0.701629 0.211096 -1.773012 -1.131628 -1.398767 -0.887891 -1.146017 2.141528 -1.084151 -1.459855 -0.205165 0.632739 -0.460923 -0.870964 0.192799 -0.393261 -0.855715 0.500149 -0.607366 -1.024108 2.309366 -0.841502 1.237100 -2.690410 1.228373 1.655649 0.204631 1.602468 0.443567 1.680294 -1.622393 0.275142 1.206768 -1.657297 0.366516 0.244235 0.317512 0.602461 1.009508 -0.340271 -0.370343 -0.668301 0.544649 0.871068 0.148088 2.822759 1.045789 0.806926 1.613485 0.959259 1.019070 0.011243 -0.916709 -0.099837 -0.457757 -1.339040 -1.638954 0.644155 -0.304494 0.800448 -0.545857 0.012859 -0.705154 0.806658 0.257543 0.020868 -0.042314 0.562430 1.584116 0.579223 0.920072 -0.446259 -0.604169 1.685530 -0.490896 -1.136233 -0.555176 0.814140 -1.502756 -0.831746 0.095517 0.481125 1.009322 0.336220 -2.449945 2.299903 0.448492 -0.193157 -0.394231 -0.583678 -0.826258 -0.235058 -0.497936 -0.522098 0.462374 1.525187 -1.248127 1.781287 0.995302 
heute 0.058458 -0.667431 -1.167671 0.110824 -0.770999 1.150479 -0.081927 -1.113717 0.016282 -0.758645 -0.735748 0.631814 -0.008741 -0.260996 -0.032157 0.697891 0.646191 -0.488923 0.523000 0.414193 0.052870 1.419694 0.150291 -0.456893 0.282626 1.711677 1.507180 0.379043 1.881102 -2.065082 -0.053827 0.268466 -1.308989 -0.255683 0.770433 -1.496843 1.535955 -1.137792 1.186898 -0.433665 1.267497 -0.535032 1.232049 0.075765 -0.474962 -1.325722 -0.326375 0.988831 -0.421358 0.712706 -2.275959 -0.068966 0.096798 -0.035211 -0.385973 -0.577570 -0.982888 -0.292507 0.716448 1.609956 -0.198163 0.086387 -0.517060 0.978817 0.314790 -0.284319 -1.598973 2.211461 0.961097 0.905436 1.433026 0.267993 0.200030 -1.984577 -0.266019 0.309050 0.292179 0.360055 -1.126203 -0.681386 -2.183331 1.544734 -1.544598 0.041655 0.199409 -0.282220 1.341438 0.087907 -0.484504 1.653385 -0.853302 0.886765 -0.211680 0.084413 -0.953182 1.416613 0.890107 -0.336787 0.440808 0.389934 
eine -0.554166 0.282671 -1.730818 -1.067862 -1.473521 -1.099279 0.979595 -0.503464 -0.303111 0.972530 -0.714099 0.431261 0.546727 -0.844813 -0.877770 1.402298 -0.469797 -1.642209 1.661796 0.423993 -0.433630 -0.498073 0.508404 -0.733030 0.710891 -0.517771 0.278161 0.644005 0.347415 1.427097 1.078982 -0.953557 -1.724741 -0.440251 -0.976297 0.340313 -0.071314 -0.854386 -0.073646 -1.509730 0.188942 -1.103197 1.581428 0.710981 1.383910 -0.450873 -0.762554 -0.870963 0.484927 -0.655294 -0.598967 1.262157 -1.281981 0.453601 1.365297 0.075370 1.081145 -0.120048 -1.040912 -0.768272 -0.624736 -1.272731 -0.438109 -0.626398 -0.183782 0.332408 -0.937828 1.149335 -0.562887 0.243454 0.555318 0.501342 -0.115170 -1.948752 -0.499201 -0.690126 1.093929 -0.291184 -0.071212 -1.073626 -1.152033 -1.050970 -0.236090 1.079090 0.893548 -0.367228 0.651861 -1.584339 0.436693 -0.986321 0.446429 -0.071428 -0.378430 -1.239738 -0.019561 0.365871 -0.789656 -0.647797 1.168964 -0.993279 
#musik 1.134604 1.240632 0.017567 -0.533618 -1.466519 -0.213377 0.012341 0.134188 0.405636 0.161227 1.128623 -1.199878 -2.544117 -2.011474 0.575311 0.674414 -0.406285 0.245051 0.595906 -2.034681 0.025776 1.624098 0.130530 -0.809228 1.183886 2.369905 -0.839723 -0.503838 -0.545059 0.884449 -1.627187 -0.968383 1.519720 0.464368 0.259826 -0.251165 1.767488 -0.622301 -1.519390 -1.641232 -1.976589 0.281352 -0.904237 -1.926447 -0.460681 0.738410 0.256636 1.305766 -1.880253 -0.775540 0.644778 -1.043645 0.987552 -0.620390 0.980517 -2.398488 1.176961 0.449522 1.563910 1.756196 0.339955 0.522472 0.776467 2.284848 -0.251580 1.450724 0.040511 1.990133 0.497814 1.824064 -1.446656 -0.022816 2.647435 -3.645877 1.046181 -1.557923 0.042059 0.864818 2.479210 1.066391 0.722759 -0.024290 -0.605914 -1.171573 -1.265007 0.624659 -0.836979 -0.356422 0.282262 -0.812577 1.681591 -0.452563 -0.457250 -1.292208 1.417234 0.669249 -0.356175 1.340495 -0.253470 -1.383658 
#journalismus -0.063610 -0.214951 -0.906793 -0.457340 0.217532 -1.782915 -0.646308 -0.150493 0.909357 0.298810 -0.349469 -0.952973 0.438349 -0.531516 -0.545542 1.297177 0.688086 1.597670 2.170461 0.368707 -0.013075 0.818075 -0.173592 -1.401879 -0.657002 -0.241899 -0.075039 0.885511 -0.815080 1.421391 0.977765 -0.438416 0.572468 -1.082478 0.292721 -1.483450 0.608723 0.796756 -0.642484 -0.839842 1.208465 0.384712 -0.467271 1.073041 -0.035660 1.673737 1.116757 -0.316766 -0.210255 1.438041 2.432777 -0.195912 -0.611015 -1.577198 -0.483739 -1.483407 -1.178530 -0.582696 -0.573605 1.284649 1.204160 0.162741 -0.072877 1.315235 -0.393092 0.537673 -0.884706 0.066582 -0.227133 1.139114 0.181913 2.175726 0.109977 -0.839590 0.798945 -0.349474 0.255290 -0.259605 0.483074 0.405620 0.064577 0.306027 0.399510 -0.496618 -0.981983 -1.323964 0.131317 -0.429939 -1.859586 -0.712297 0.614857 -2.487974 -1.185833 -2.147465 -0.858524 0.716147 -0.207594 -1.356622 0.599940 -0.279349 
wird 1.620196 0.394996 0.535315 0.054860 -0.109327 -0.627311 0.202332 0.509000 0.684387 -0.124983 -0.608487 0.595347 1.082289 -0.960880 -0.219897 -0.139508 -0.043111 -1.323828 -0.776036 0.360742 1.071759 -0.030106 0.239259 -0.639969 0.848222 -1.086943 0.492786 0.087080 1.592438 0.806739 -0.585983 1.527619 -1.142983 -1.079112 -0.644786 0.183777 0.526200 -0.633504 -0.708585 -1.029532 1.134276 0.511794 -1.202459 -0.210483 1.623070 -3.209692 0.755209 0.266996 0.744480 1.071849 -0.868968 0.408802 0.742947 -1.258343 -0.431025 -1.433862 1.099896 -0.600010 1.573955 -0.409112 1.785356 0.268634 -2.037954 -0.256199 1.452144 -0.188091 0.867367 0.290168 1.595469 -0.442088 0.358548 -0.607303 1.753752 0.515956 -0.352805 -0.701804 0.119232 -0.266127 -0.266112 1.372319 -0.733646 -0.930191 0.126482 0.066145 -1.447485 0.760972 -2.150083 -0.411924 0.777595 -0.855249 0.938777 -1.654657 -0.084615 -1.224300 -0.569660 1.166081 0.554810 0.063084 0.218940 0.790250 
#polizeiruf110 0.677178 -0.358170 -0.044566 -0.518113 -0.086161 -0.503737 0.233485 -0.217549 0.227586 -0.459072 -1.071314 0.848896 2.039962 -0.265667 1.143246 1.369055 -0.367194 0.927971 0.193927 -0.116163 -0.439038 2.476509 -0.620494 -0.946131 -1.037015 0.854394 0.857962 1.536233 0.836317 0.865028 0.075265 2.096211 -1.156004 -0.036176 -0.738601 -1.762984 0.251907 -0.217571 0.004205 -1.473036 0.188404 0.479344 0.226250 0.061802 -0.903275 0.046001 1.322531 0.462133 -0.580028 -0.316167 1.228292 1.174279 0.604996 -0.354500 0.661621 -1.211025 -1.039429 -0.884123 1.446913 -0.375170 0.365494 1.363856 0.909974 -1.049988 0.050199 1.710359 0.971186 0.996000 0.677936 -0.220766 -0.145923 0.556286 1.059469 -2.174174 1.131902 -2.577972 0.732180 -1.189007 0.059279 -0.489176 -1.141415 -0.267759 1.605252 0.045341 -0.644222 -1.064069 1.014363 -0.538488 0.984767 -0.272544 -0.317429 -1.401676 -0.295914 0.156359 -0.666773 1.490589 0.797886 0.097355 1.072156 -0.267152 
vor 1.202573 1.521678 1.227736 -0.065258 -1.784835 -0.073490 -0.440881 0.164092 0.862617 0.135768 0.813880 1.420599 1.635764 -0.108945 0.513567 -0.379002 -0.420918 0.427792 0.753618 0.350410 -0.602754 1.337636 -0.213275 0.115703 0.746550 -1.920020 1.847554 0.070938 1.372652 0.865467 -1.062440 -0.651340 -1.972567 -0.298745 0.544662 0.252403 -2.208046 -0.438019 1.805957 2.525269 0.459873 -1.746508 1.866322 0.421125 0.772578 -0.384559 -0.003965 -0.598749 -1.291806 0.810937 0.363114 0.030517 0.157668 0.049243 0.161716 -0.186525 -0.190885 0.106282 1.924000 0.485675 0.565347 0.778724 0.091875 -1.448986 0.720412 -0.382888 0.295737 0.675654 1.815625 -1.921477 0.137674 -1.639027 -0.513867 -1.155752 -0.895947 -2.346958 -1.003494 -1.058659 -1.662676 1.193308 -0.342062 -0.136809 1.312563 0.165017 0.247795 -0.688679 0.345296 -0.212465 1.919809 -0.868974 0.258588 -0.937142 0.285803 0.817186 -1.442150 -2.169958 0.197950 1.219347 0.050040 0.239950 
&amp -0.191218 0.443197 -1.023800 -0.065044 1.570510 0.706627 -0.839868 -0.050730 0.549705 0.782600 0.059041 -0.525676 0.759174 -0.938192 0.298227 0.864818 -1.277876 -0.021974 0.541533 1.212820 -0.360941 -0.865271 -0.097655 0.872976 0.339722 1.737677 -0.953358 -0.164739 1.365993 0.430428 -0.611409 -0.204535 0.955189 -0.908011 -1.036175 -0.391249 -0.214224 -0.708159 -0.935508 -0.447558 -1.251996 0.059606 -1.643806 0.671131 0.796770 0.124616 1.265101 -0.564905 -0.290136 -0.675441 0.825922 -0.783920 -0.468593 0.823405 0.029960 -1.641555 0.972570 -0.454182 0.960808 -1.145725 0.170695 -2.144856 0.311244 0.701921 -0.641254 0.041388 -0.838306 -0.199028 1.012351 1.180313 1.668842 0.206917 -0.799486 -1.208765 -0.058475 0.310606 0.233657 0.958908 -0.255253 -0.728068 0.338658 1.397553 -1.385078 1.171104 -1.040881 0.357718 0.559258 -0.786572 0.385938 -1.437649 0.636207 -0.352053 -0.806327 -1.722304 -0.146612 -0.997517 -1.143551 0.811237 0.428554 -0.604994 
vom 0.921390 -0.158915 0.163826 0.740880 -0.225195 0.300668 0.024623 -0.079585 -1.223857 -0.103746 0.199180 0.194321 -0.736348 -0.760853 1.622264 -1.354001 1.101601 -0.846770 0.915092 -2.302452 0.892453 -0.673789 1.372058 -0.676718 -0.907885 -0.265864 0.393875 0.837613 -0.084729 -1.871521 -0.466122 1.124147 -0.345311 1.222715 0.659117 -0.452829 -1.597315 0.080413 1.026864 0.361184 -0.100935 0.350672 1.651358 -0.363359 0.393052 0.912227 -1.698904 -0.886741 1.537163 0.961875 0.334956 -1.965018 -0.947172 -0.320087 -0.568130 -0.353024 0.212499 0.060060 0.923165 -0.006187 1.905580 1.039152 -0.509774 -0.829457 0.830580 0.115585 -0.610002 0.734742 1.039682 -0.263499 -1.042440 1.706343 1.498499 -1.835579 0.085780 -0.545090 -0.300346 0.347810 -1.902277 -0.988710 1.010369 -1.291550 -1.338026 -0.994762 0.636722 -1.066966 0.851953 -1.247273 0.230866 0.259818 0.242147 -0.782067 -0.398021 -1.500530 -0.717479 -0.336037 0.457298 -0.101029 -0.823132 -0.015806 
als 0.305692 0.200837 1.474195 -1.140039 -0.992941 -0.164243 3.150754 0.422187 0.380921 -1.342220 -2.584498 -1.005160 1.130160 -0.981166 -1.463631 0.064268 0.768534 -0.244652 1.241994 -0.364020 0.982659 1.166779 0.019761 -1.268810 -1.808517 0.353021 0.698874 -0.236089 1.114624 -0.395852 0.366540 0.787763 1.006598 0.118461 -1.307677 -0.326147 0.779700 -1.316790 0.659933 -0.869533 1.313969 -0.489689 0.270137 -1.131778 -0.210788 0.446700 0.967915 -0.496517 0.500812 -0.796693 -0.168937 0.571658 0.354338 0.022573 0.909206 -0.850059 1.438007 0.700793 0.918871 -1.059884 0.142124 -0.344509 -0.991505 -0.370447 -1.088280 0.883677 0.804726 -0.518620 0.097047 -0.364909 -0.653493 0.667229 0.244543 -0.084935 -0.318092 0.590932 0.675712 -1.517047 -0.387590 -0.055371 1.305980 0.312545 0.478955 0.301790 -0.741586 -0.636320 -0.661616 -0.270684 -0.135820 -0.433959 -1.067330 -1.069991 0.716334 -1.437315 -0.743931 -0.237447 0.719169 -2.141163 -0.053936 0.336486 
zum -0.398210 0.784776 -0.606594 0.011464 -2.044536 -1.463504 0.710248 0.702581 -0.034975 -0.281675 -0.293739 1.174779 0.101670 -0.752559 1.213898 0.225868 -1.096469 0.792046 0.422932 -1.791925 -0.200714 0.808752 2.526833 -0.831518 -0.846777 0.034298 -0.199995 0.898821 0.274424 -3.070454 -0.381248 -0.482924 -0.275326 0.595565 -0.316291 0.719525 0.656498 0.863407 0.598144 0.329774 -1.176805 0.513949 1.117061 0.162824 -1.426785 0.076978 0.672158 -0.422599 -0.473340 1.391460 -1.464349 -1.061999 0.155835 -1.587059 -0.503258 1.074458 -0.438402 0.381085 1.760163 -1.260170 -1.188358 -1.183955 -0.808078 -0.380395 -0.358194 0.659869 0.104942 0.964568 0.474524 -0.033821 -0.049146 -0.801020 0.475570 -1.151578 -0.626286 1.675559 0.958921 0.214126 -0.404324 -0.466196 0.418430 0.705600 -0.843733 -0.379256 -0.244430 1.421728 0.255376 -0.377210 -0.376054 -0.363422 0.118350 0.789856 -0.033072 -0.249737 -1.523962 -1.199340 0.171053 -0.023461 -0.040379 0.489241 
#rtl -0.413523 -0.237675 0.350816 -0.648444 -0.834578 -1.533258 -1.083605 0.812525 3.106114 -2.024037 1.175323 0.418099 -0.563132 -0.304358 0.420378 1.438152 -0.818283 0.133209 0.350870 -1.116112 -0.776078 1.806746 -1.741951 0.967946 -0.921532 0.362692 -0.547912 -1.576070 0.273948 0.288945 0.233478 -1.077140 -0.110772 0.935128 -0.077362 -1.521534 -0.445715 -0.124105 -2.363700 -0.858036 -0.371730 -0.120453 1.070080 -1.168526 -0.535749 -0.273698 1.736285 0.048946 -0.324581 0.938950 1.938907 -0.538647 1.082550 -0.724901 1.609762 -2.222346 0.894576 -1.271634 0.033089 0.051532 0.838833 -0.399056 -0.370477 0.336169 0.871572 0.697179 1.172416 0.667868 -0.241699 -1.363491 0.707022 0.294496 0.352317 0.358478 -0.679781 0.298822 0.262843 1.644526 -0.688003 -0.973466 0.333390 -0.066650 -0.717264 1.163241 -0.850942 -0.442553 1.068969 -0.886436 -0.024069 -0.345794 0.093686 -1.545861 -1.283384 0.639778 0.956301 0.282371 1.857718 -1.141641 1.872260 -1.746378 
beim -0.643672 0.039676 1.386682 0.604266 0.067287 -0.913207 1.296058 0.847669 0.714630 -0.948775 0.080806 0.330988 0.527695 -0.063376 -0.102379 -0.220026 0.573032 -0.697317 0.406708 -0.101924 -0.656250 0.765634 2.908312 -0.683508 -1.479201 1.262425 0.486323 0.428457 -0.574554 -1.566369 0.580371 -0.415969 -0.308613 0.729968 0.638596 -0.544793 -0.639642 0.759157 0.537764 -0.058523 1.492839 -0.085922 1.145720 -0.848841 0.127665 -0.276014 1.282248 -0.162718 0.152596 0.397570 -0.639268 -1.615445 -0.538382 -0.987915 -0.100728 1.035304 -0.042696 -1.254589 1.146541 0.765115 1.250799 -0.027377 -1.326325 -1.132967 0.004362 1.747588 0.105260 2.153021 1.562605 0.404961 0.618204 0.922167 1.935105 0.676252 -1.195600 -0.224739 0.393368 0.682387 -1.110775 -0.457473 -0.250724 0.316385 -0.314510 -0.354160 1.562282 -0.073232 -0.411652 -0.927854 0.461252 -1.491365 -0.159428 -0.068050 1.639250 -0.510208 -0.187692 -1.355210 0.309065 -0.134120 0.711986 0.138786 
wir 0.439051 1.493062 1.858298 -0.442680 0.723094 -1.605029 -1.283510 -1.019762 0.372485 2.161282 -0.160118 1.558818 1.635131 -0.488791 1.366398 0.177982 0.592092 -0.097380 2.605341 -1.211834 -1.553539 2.384649 0.175774 0.256123 -1.655410 1.621183 0.020624 -0.589565 1.505018 -0.015021 -1.014463 0.954941 -1.858736 0.374359 -0.678435 -0.052288 0.934309 1.529150 -0.981478 -0.888348 -0.225587 1.431321 -1.835275 -1.124699 0.700985 -0.734986 1.623420 1.062751 -0.994178 1.311711 1.257237 -0.040968 -0.820645 0.805537 -0.028762 -0.501926 0.659554 -0.166148 -0.379856 -0.109857 1.727798 -2.365679 -0.207675 2.321593 -1.623897 0.417046 -0.655531 -0.980278 -0.400565 0.064022 0.652310 0.072496 0.699104 -0.230797 -0.551136 -1.500765 -0.306649 0.647267 1.574934 1.273746 -1.508943 -0.418280 -1.853306 -0.689625 -0.155864 0.998271 0.716865 0.871707 0.161625 0.221209 1.006506 0.047492 -0.588311 -0.994198 -1.753130 -1.984599 1.524881 1.283127 1.206076 -0.659076 
sie -0.216236 -0.635830 1.867067 -0.046982 0.560738 -1.238374 -0.893002 -0.103741 1.318188 0.044696 -1.345981 0.653690 0.123653 -0.715836 0.743710 0.680918 -0.529420 -0.575268 1.506922 0.688970 0.540957 1.200442 -0.365690 -0.196518 -1.465369 0.982563 -0.401378 -0.943720 1.076931 -0.252789 -1.076303 0.935552 -0.519238 1.312956 -0.232848 -0.814378 -0.090890 -0.048955 -1.411741 -1.061917 0.665209 -0.564167 -0.466488 0.643835 0.439470 0.289158 0.825256 0.889710 -0.896460 0.737768 0.682156 1.378278 -1.820637 0.674256 1.206086 -0.336701 1.552703 0.476300 -0.431447 0.684947 2.848602 -1.169237 -1.236830 -0.432590 -0.052298 0.101754 -0.415783 -0.177842 -0.303029 -0.020950 0.214917 -0.524652 1.089685 -0.624378 -0.303154 -0.831040 -0.461238 -1.229182 -0.133660 -0.266085 0.525462 1.115342 -0.575538 -0.947531 0.369270 -0.023261 0.493140 0.323822 0.783598 0.242491 -0.548644 -0.002422 -0.028195 0.220946 -1.214541 -2.055424 1.281108 -0.311392 0.947542 -1.166745 
man -0.595726 -0.423254 1.042953 0.424698 -0.554178 -0.637856 -1.104937 -0.781594 0.400466 -0.157485 -0.917249 0.870025 0.865512 0.144105 -1.228708 0.994041 -1.075188 -1.261207 -0.241245 -1.464045 0.353849 -0.870588 0.275306 -0.047030 0.237822 -0.554018 0.488297 -0.895395 1.164856 -0.522084 -0.262492 0.439523 -0.618515 -0.389896 0.470691 0.620147 -0.210949 -0.382746 -1.083451 -2.120542 -0.367757 -0.810880 -1.807320 0.534492 1.314416 1.110986 0.311899 -0.443451 0.309431 0.483031 -0.872848 2.952916 -2.379959 -1.788482 -0.118029 -1.694170 0.016833 -0.502882 0.992096 0.359597 1.050254 1.132367 -0.267056 -1.300012 0.614886 -1.246115 0.531543 0.322345 0.348124 0.001708 -0.211444 -0.453599 1.470897 -1.506454 0.679508 -0.357027 -0.585152 0.776900 -1.243292 0.704791 -0.184275 -0.303925 1.417384 -0.744404 0.883980 -0.659232 0.925961 -0.304043 1.263085 0.074231 1.051013 -0.001599 -1.139449 1.159029 -0.871655 -0.526968 2.193000 -1.374816 0.301646 -1.781280 
#dienachrichten 1.014593 0.248997 -0.099713 0.510632 -0.465346 0.310927 -0.832593 -0.955806 0.372190 0.427103 -0.389812 -0.433901 -0.507374 -0.686428 0.789430 -0.250187 -0.547504 0.203216 0.448928 -1.773996 0.361016 0.424168 0.625279 0.446833 -1.127675 1.239540 -0.244069 0.266697 0.364010 -0.010969 -0.290667 -0.584998 -0.387640 0.093187 -2.292484 -0.238966 0.319753 0.674776 -0.099025 0.272532 -0.933979 -0.741137 -0.324476 0.100110 0.505459 0.799183 0.353854 0.198995 -0.540483 0.549794 -0.456622 1.056471 0.009610 -0.523800 -0.370836 -0.774773 1.288395 0.233339 0.670392 0.318384 -0.362493 -0.063056 -1.131057 -0.782748 -0.275294 -0.063226 0.055739 0.127588 -0.220382 0.209084 -0.196199 -0.380795 -0.902778 -1.692961 0.540476 -0.032495 -0.051991 -0.897877 1.006704 0.983449 -0.293714 0.257642 1.485270 -1.051258 0.032180 -1.401877 -0.613649 0.377909 -0.876519 0.927439 0.318125 -0.767663 -0.898366 -1.144829 -1.214512 0.308369 0.175313 -1.134146 0.666345 -0.173713 
sind 0.833659 -0.445189 -0.259774 0.194587 1.383835 0.800357 -0.166711 -0.352417 0.585270 0.962255 0.530039 0.622666 0.481826 -0.105098 -0.423879 1.172245 0.617931 -0.771046 -0.425879 0.314874 -2.240894 0.797238 1.118145 -1.387630 -0.756435 -0.686788 1.047758 0.136844 1.562615 0.534032 1.124263 -0.830105 -0.069015 -0.648114 0.759761 -0.898177 0.166208 -0.247613 -0.569740 0.003717 -1.854162 0.078690 -0.410377 -1.161129 0.702236 -0.851888 0.128157 -1.041680 -0.389371 1.529368 -0.425470 -0.131142 -0.251685 -1.712078 -1.744937 -1.095702 1.201812 -0.785769 -0.308745 -0.640207 2.042020 -0.892820 -0.444140 -1.349392 -0.105644 0.061317 -0.852293 -0.582297 0.285976 0.480944 -0.278319 0.846075 0.173725 -0.903902 0.449075 -0.852983 -0.429075 0.627589 0.700067 0.208644 -0.528369 -0.914999 -0.537882 0.805681 -0.285286 0.123818 1.029214 0.410204 -1.510558 0.406672 0.659035 -1.245461 -0.286370 -1.875054 0.931724 0.006303 1.164352 -0.252582 0.206356 0.094678 
spielte 0.522797 0.131064 -0.091050 -0.417477 -0.267340 0.591006 -1.147646 0.538654 -0.295281 0.836501 -0.365507 -0.060647 -0.095673 0.563796 0.234882 -0.345743 0.471263 0.555775 0.834928 -1.095953 -0.792339 0.916461 -0.411025 -0.913526 0.847876 -0.531220 -0.323393 0.081024 0.132641 1.569657 -0.698123 0.814873 0.049393 -1.546240 -0.178686 0.260492 0.974834 -2.033317 -0.954208 -0.428439 -1.050503 1.028338 -0.913303 -0.267893 -1.259774 1.503386 0.551455 0.093722 -0.121896 1.130699 -0.355011 0.267430 0.100358 0.105796 1.780855 -0.647564 0.800604 0.116076 1.029952 0.535870 0.373854 -0.588067 -0.043780 -1.140795 0.022436 -0.132451 -0.408339 -0.507326 1.133180 -0.351883 -0.638360 -1.443038 0.786167 -1.055093 -0.233497 -0.899346 1.078510 0.129848 -0.512152 -0.434549 -0.399720 0.377874 0.781113 -0.753835 -0.750352 -1.068584 1.342646 0.189285 0.683747 0.959673 0.613500 0.802968 -0.525786 0.394975 -0.639168 0.397866 -0.781091 0.438394 1.025361 -0.489039 
nur 0.322568 -0.488526 1.086097 0.749018 -0.097182 0.197425 -0.081126 -0.467327 1.318150 -0.302069 -0.837834 0.719070 0.220928 0.725722 0.290611 1.141873 0.966568 -0.337143 1.187993 -1.369563 -0.821464 1.572179 1.017098 -0.359318 -0.522050 0.167625 1.615744 -0.087357 1.310474 -0.360432 -0.570008 -0.084120 -1.086126 -0.605847 -0.308702 -0.329709 1.219714 0.416559 -1.333335 0.303014 0.772748 -1.021009 0.315556 -0.687143 0.789514 0.546140 0.719506 -0.465611 -1.486944 0.550129 0.151650 0.989191 -0.572007 0.720535 -0.380673 -0.372053 0.002944 -0.449748 -0.511701 0.301946 0.086188 -0.390235 -0.780539 -1.192998 -0.471289 -0.402869 1.534996 0.362735 -1.610446 -0.532778 0.067762 0.071019 0.756293 0.291226 0.344686 -0.841793 0.438556 -0.737499 -1.025857 0.785322 0.847473 -0.542987 -0.467864 -0.882867 -0.064539 -0.073285 0.632142 -1.300326 0.408069 -0.523277 0.973996 -0.108566 -0.258146 0.073810 -1.094194 1.341914 0.650547 -0.933634 0.193443 -0.717074 
wieder 1.690854 0.189640 -0.066627 0.741924 -0.848198 -1.009349 0.246618 -0.436922 0.537340 1.420306 -0.248134 1.155740 0.779538 -0.088585 1.254918 0.002929 0.958008 0.246889 0.450197 -0.488758 -2.118939 1.509823 -0.971251 -0.230371 -0.974633 0.077147 -0.606387 -1.717671 -0.135822 -0.373011 -0.471554 -1.104237 -0.389643 -0.343036 0.911063 -1.420869 0.867069 -0.892237 0.390056 -0.161939 0.690634 1.337583 -0.422316 -1.340218 0.505585 0.001535 0.828496 0.764497 -0.613486 0.548408 -0.800033 0.003613 0.999172 -0.798342 -0.366346 -0.643797 0.455696 -0.166404 0.858070 -0.160143 -0.720810 -0.677512 0.053109 -0.564540 -0.394673 1.726775 1.066977 0.320295 0.392803 1.216303 -0.796669 -1.355643 0.527911 -0.698675 0.624806 -0.613062 -0.538517 -0.016317 -0.042823 -0.845740 -1.537886 0.121808 0.110569 0.482005 -0.538639 0.284229 0.886757 0.286880 0.303657 0.896121 1.262912 0.310613 -0.296592 0.022626 -1.314265 -1.154437 -1.106781 -1.004123 0.150196 -0.225068 
über 0.363302 0.409595 0.614003 0.750977 0.589437 0.997840 0.735166 0.017478 -0.445566 0.535206 -0.028823 0.500272 -0.650451 -1.681991 -0.068649 0.545037 -1.559417 -1.693449 1.507547 -1.966569 0.005769 -0.206219 0.922427 -1.206509 -0.984262 -0.240467 0.596134 -0.122187 0.153722 -0.262557 0.079369 0.577627 0.353080 -0.979818 -0.340922 -1.035093 -0.283647 0.618992 2.305212 -0.971232 0.242785 0.920634 -1.234003 -0.476247 1.875759 -0.548666 0.068715 0.095393 0.592364 -1.291180 -1.916445 0.639256 -0.789468 -0.401919 -0.144758 -1.544089 0.145512 -1.163486 1.821324 0.457993 0.169908 0.770764 0.798446 -0.138676 -1.237916 1.012943 0.578467 -0.552743 0.645556 -0.497564 -0.151816 1.370474 0.230071 0.564284 0.013071 -0.301258 -0.482833 0.643029 -1.146177 -0.330975 0.835760 -0.818587 1.351827 -0.536165 -0.211945 0.298718 0.268780 0.194520 -0.359975 -0.316605 -0.232326 -0.620635 -1.212411 -0.583181 -0.775006 -0.769290 -0.193858 -0.863187 -0.927938 -1.892851 
um 1.688475 0.034371 1.144505 0.934993 0.195986 0.599262 -0.078184 -0.172186 -1.302091 -0.215500 -0.383422 1.634938 1.020362 -0.853418 0.451122 0.403552 0.130200 0.565959 1.521389 -1.251400 0.573476 1.304308 0.083271 -0.671025 -1.722264 -1.283711 -0.306620 0.634809 0.424805 -0.952414 -1.097651 -0.713085 0.056701 0.372123 0.037141 0.417376 -0.091369 -0.509927 0.949356 -1.295611 -0.502513 1.423274 -0.327235 -0.705349 1.313840 -1.457594 -0.278871 -0.877702 1.325211 1.416625 0.132370 -0.153326 0.143846 -0.430013 0.061970 -0.765933 1.743290 -0.347363 0.624496 0.444675 2.159711 -0.291361 0.937273 0.221650 1.036707 0.556105 -0.324090 -0.369788 -1.112867 -0.994475 0.400948 -0.974210 -0.050913 -1.307495 -1.434917 -1.143065 -1.106014 -0.595921 -2.662599 -0.610018 -0.271606 -0.723825 -0.247672 -1.080229 -0.817142 -0.833531 -0.252841 -0.584512 1.606205 0.859548 -0.553070 -0.375546 -0.498669 0.096456 -1.302070 -0.733768 -0.186961 -0.287023 -1.245377 1.498665 
#osx 0.708369 1.027669 0.682091 0.077049 -0.475733 -1.777724 -1.088890 -0.664036 0.202113 0.336671 0.459433 0.458225 -1.558863 0.091492 0.291266 -0.157661 0.853667 1.185956 -0.462639 0.147598 -0.966327 0.774797 -0.435328 -0.325034 -1.422716 -1.214932 2.107879 -0.295775 -0.567536 -0.456416 -0.478290 -0.762123 -1.593982 -1.987825 0.135241 0.627563 1.133567 0.450297 -1.242746 -2.843655 -0.198945 -0.474033 0.722347 -2.031185 1.446448 -0.004200 -1.097600 1.416595 -1.101108 0.021657 -0.851219 -0.291206 0.564636 -0.650660 -1.026995 -1.118935 0.295740 -2.383049 -0.737298 0.717155 0.495442 -1.112742 0.798477 0.910484 0.512461 2.539089 0.530225 -0.406930 -0.345254 -1.464078 0.181467 1.931465 0.612182 -0.653830 0.647878 1.340265 0.772857 0.438489 -1.180337 -0.141157 0.655547 0.162638 1.467432 -0.628185 0.362512 -0.495066 0.470257 -1.290942 0.903401 0.913192 -0.500377 -1.203071 1.243728 -0.858860 -0.579594 0.506787 -1.323286 -0.982764 2.753362 2.194149 
| 0.231242 -0.203972 -0.249413 -1.269222 0.847925 0.181564 0.185535 -0.717248 -0.803471 0.097841 2.194233 -0.028836 -0.594748 0.776925 -0.081482 -1.009101 -1.441516 -0.066671 0.694631 -1.006771 -0.608747 -0.249876 -0.643062 -1.799198 0.994179 1.317582 0.173915 0.580366 -0.918566 -0.110222 0.853557 -0.440505 -0.526194 -2.737462 0.605525 -0.851334 0.003193 1.418698 -0.667569 0.873316 -0.788525 -0.577333 -0.988290 0.767648 0.066164 0.503085 0.578211 0.361855 0.160122 -0.819684 -0.216462 -0.279982 0.072120 -0.235575 -0.691860 -0.655562 1.900208 -2.453308 0.712039 -0.346682 0.887542 -0.012997 0.063137 -0.081004 -0.185719 0.904182 -0.249529 -0.550810 1.180502 0.468686 0.451586 0.579136 -0.664650 -0.194577 -0.122034 -0.134812 0.412928 -0.098049 -0.869107 0.877609 -0.752929 -0.050493 0.192431 -0.723354 -1.130963 -0.559870 -0.037800 0.267238 1.561409 -0.840570 0.883528 0.268939 -1.164363 0.008127 -1.355807 -0.153884 1.909417 0.368085 -0.120619 -0.846742 
#miasanmia 0.890840 -0.095088 -0.230960 0.689687 -0.350573 -0.592331 0.606093 1.260065 0.501490 -0.238161 -1.109102 -1.054369 0.407676 -0.792488 -1.322919 -0.679881 -1.036843 -0.356143 0.850539 -0.357395 -1.151436 1.014203 -0.961995 0.171801 -0.966369 0.688870 0.316225 -0.048493 -1.158775 0.892016 -0.979164 0.511192 1.136180 -0.620457 -1.187211 -1.517684 0.438134 0.356905 -1.923399 -0.352319 -1.068841 -0.575348 0.859688 -1.337461 0.380019 0.932565 -0.468512 -1.530685 0.355019 0.500049 -0.784724 -0.830133 -0.822639 -0.649632 0.468686 -0.832482 0.641739 -0.724596 0.230017 0.386737 0.092419 -0.200837 1.082181 -0.020038 -0.053338 1.752183 -0.685638 0.383578 0.428971 0.325894 0.074480 -0.550251 0.045157 -1.232152 0.564364 -1.491877 -0.580320 0.961647 1.869926 0.772658 0.674104 -0.584723 0.046135 1.132070 -0.175603 -0.217778 0.909649 -2.537777 1.531907 -0.369001 0.500846 -0.047266 2.537050 0.899131 -0.448852 -0.580487 -0.734233 0.782536 1.936295 0.766554 
da -0.517160 -0.665061 -0.381308 -1.109003 -0.613829 -1.101603 -0.001713 -0.933868 2.026868 -0.159097 -0.270523 -0.254503 0.347189 0.620980 0.391747 0.068609 0.847303 -0.791426 0.639339 -0.456863 -0.346545 0.776249 0.430291 -0.848429 0.236294 -0.174640 0.683622 -1.189872 0.649113 0.982578 0.055356 -0.459026 -0.819304 -0.503866 0.955756 -1.048983 0.784084 -0.952345 -0.251593 -0.647835 0.857922 -0.929776 -0.253319 -0.413630 0.839352 0.902464 -0.509632 0.073499 -0.692853 0.220966 0.771374 -0.174580 0.127887 -0.522820 -0.032156 -0.815343 -1.054704 -0.935339 0.319436 -0.423799 0.700904 0.011321 -2.039886 0.236243 -0.308108 -0.297120 0.316492 0.491080 0.410441 0.191188 -0.906020 0.300392 -0.882173 -1.143354 0.787544 -0.638841 -0.713718 0.870957 -0.953981 -0.776913 0.338155 0.375843 0.282129 -0.490989 0.852466 0.161446 0.730966 -0.679451 0.840150 -0.276945 0.753057 0.893163 -0.526551 1.299201 -0.929621 0.497946 0.454306 -0.843741 1.071528 0.161284 
schon 1.367160 0.108149 0.078839 0.098845 -0.265771 -1.436089 -0.410038 -0.832298 -0.030816 0.354216 -0.712867 -0.033551 0.014386 -0.136351 1.904170 0.406923 0.829455 -0.046113 0.351318 -0.355164 0.157630 1.074427 -0.212203 -0.767580 0.644687 -0.111706 0.011944 -0.988075 0.365040 -0.055670 -0.471293 -0.364469 0.186179 -0.904212 0.443820 1.031733 1.111775 -1.878547 0.480137 -1.216212 -0.188646 1.004532 0.006626 0.177458 -0.574928 -0.521992 -1.267451 -0.287651 -0.733459 1.733964 -0.373162 -0.097393 0.468303 -0.764585 -1.448102 0.154049 0.207812 -0.373532 0.604356 0.943047 0.761727 -0.539792 0.096825 -0.232019 -0.109689 0.822788 -0.427811 -0.162081 0.433500 -0.377119 -0.238758 0.562059 -0.132299 -1.325562 0.171622 -1.109415 -0.635466 0.138434 -0.041434 -0.137083 -1.112561 -0.216856 -0.068665 -0.343939 0.275692 0.740635 1.130293 0.066243 0.710919 -0.361993 0.046419 0.595345 -0.140048 0.453650 -0.526386 0.066124 0.179650 -0.829916 1.971607 1.118731 
kann 1.431462 0.077625 0.967454 0.651906 -0.346630 -0.015951 -0.283382 -0.104276 0.868485 -0.178789 -0.624037 1.250250 -0.285655 -1.084963 0.148986 -0.651400 0.467158 -1.273771 0.419484 -0.143526 0.610474 -0.291565 0.552536 -0.076626 -0.655456 -0.440628 0.055552 -0.294585 0.194457 1.126966 1.397057 0.235911 -1.458315 0.080649 0.569543 -1.253612 0.640624 -1.055095 -0.787339 0.966311 0.958306 1.494335 -0.347974 -1.910375 0.638723 -0.016788 0.913409 -0.046491 0.080378 0.874505 0.476577 0.772735 -0.216603 -0.399105 1.182014 0.637184 0.627322 -0.571646 0.013784 -1.710495 -0.624843 -0.185910 -0.243540 -0.601598 -0.085591 2.436460 0.173121 0.794339 0.298506 -0.683101 0.097660 1.881840 0.682522 -0.605865 -0.088809 -0.252152 -0.065825 0.128111 0.096814 1.781112 0.222566 -1.146404 0.607517 -1.135560 -1.125364 0.657286 -0.403245 -0.060599 0.327857 -1.381124 -0.454136 -0.130691 -0.166521 1.240167 -1.920064 -0.064485 0.870903 -0.026462 0.573822 0.828607 
mehr 0.069457 -1.952483 -0.086247 0.530442 -1.143929 -0.484152 -0.446489 -0.250489 1.058992 -0.648313 -0.324169 0.366918 -0.046879 -0.546272 -0.537298 0.082874 0.733635 -0.209018 -0.622042 -0.733026 -1.983603 0.864663 -0.015446 0.175086 -0.532025 -0.411155 1.007503 0.693076 1.020043 -0.575532 -0.040261 -0.581889 -0.686665 0.552235 0.276282 -0.961823 0.318971 0.419014 -0.728083 -0.359400 -0.634395 -0.014748 -1.228531 -0.351323 0.693141 -0.223758 0.752544 0.503593 -1.049560 0.549184 1.246031 0.617478 -1.326614 -0.287419 0.382810 0.233801 1.329353 -0.780110 0.229352 -0.664507 0.128183 1.485845 -0.906669 -0.022382 0.049040 0.572124 0.196682 1.177184 -1.244746 -0.633075 -0.231161 -0.267430 -0.087439 -0.293622 -0.452282 0.048690 -0.404850 -0.474007 0.073707 0.512153 -0.019030 -0.261179 -0.146436 -0.103763 -0.871352 0.095066 -0.454622 -1.118825 0.021260 -0.896263 -0.546224 -0.345195 -0.188535 0.281041 -2.568604 0.399108 -0.013620 -2.251006 0.642503 -0.031353 
#zdf 0.360163 0.898403 -0.577035 0.636575 0.001453 -1.306664 -0.286681 0.160338 -0.240838 -0.404922 0.595180 1.430077 0.034433 -0.740632 0.819354 0.671160 -0.896618 -0.145065 0.180499 -0.295094 0.312851 1.566463 -0.796903 1.248532 0.121114 1.456120 -0.371000 -0.420581 1.556800 -1.764161 0.915299 -0.768254 -0.360120 0.755037 -0.126546 -2.447015 -1.131494 -0.650047 -1.003927 0.437985 -0.754240 0.466299 1.413891 0.187419 -0.228448 -0.177666 2.126166 1.343933 -1.776095 -0.298771 -0.291816 -0.052173 -1.154540 -0.160576 -1.014654 -0.301491 -0.393168 0.324242 0.064983 1.006264 1.079975 -0.239363 0.244159 -0.608653 -0.127860 0.926173 1.164268 -0.946371 1.492085 1.096226 0.586481 1.129445 0.957904 -1.273652 -0.219505 0.200541 -0.515063 -0.913858 -0.660682 0.232434 -1.048405 -0.037101 -1.008664 0.398089 -1.244358 -0.713392 0.999597 -0.663834 -0.354129 -1.578261 -0.430556 -1.046923 -0.347944 -1.638435 -0.133387 0.320606 0.916070 0.255667 0.013480 -0.789090 
neues 0.602426 -0.520905 -0.689006 0.513020 -0.533400 -1.455813 -1.180452 0.522933 1.178406 1.041615 0.362277 -0.317688 -0.823082 -0.204290 0.251395 1.355215 -0.452165 -0.697940 0.176158 -1.522015 0.133527 -0.878325 0.129686 0.427611 0.656147 0.125403 -0.399328 -0.042971 0.353249 -0.764312 -1.026455 -0.531691 -0.759349 0.756055 0.030044 -0.698932 0.057779 0.210491 -1.860660 -1.220204 0.937808 -1.142039 -1.226263 0.418479 -0.934987 0.981059 1.086920 0.982228 -0.670712 -0.487244 0.502948 -1.429749 1.303134 -0.643697 -0.713078 -0.717793 -0.335778 0.466812 1.260202 0.535251 -0.422665 -0.609063 -0.952346 -0.297546 -1.022745 1.494026 1.318405 0.432526 0.696938 0.241254 -0.458940 0.029422 -0.055667 -0.669265 -0.821787 -0.120639 -0.211306 -0.853363 -1.018214 0.854828 -0.243714 1.189608 0.042913 -0.279110 0.140076 0.575210 0.446665 -0.808841 -0.401844 -0.485407 1.624236 -1.198884 0.602177 0.700603 -0.232146 0.194671 0.413870 0.130662 -0.390722 0.700716 
ihr -1.144229 0.257037 1.156053 0.686435 0.748163 -0.787908 -0.776278 -1.089917 -0.374832 1.638050 -0.602819 -0.796288 -0.741063 0.117663 0.055621 -0.591262 0.099367 -0.630182 0.331416 -1.950294 0.009740 -1.099693 0.305901 -0.392178 -1.928712 0.364702 0.841488 -0.920777 -0.005905 0.754918 -1.264569 0.199073 -1.009522 0.551702 -0.049633 0.068760 -0.396904 1.163698 -0.705085 -0.778913 -0.449838 -0.716942 -0.025007 -0.061792 0.569820 1.670373 0.238247 -0.208117 -0.451401 0.508288 -0.877003 0.084235 -3.052909 0.416994 0.456311 0.018330 1.903911 -0.966543 -0.359340 1.031155 2.036484 -0.261584 0.732012 -0.208200 0.468375 1.081269 -0.825773 0.601557 -0.140537 0.007454 0.988730 0.123918 1.324837 -1.383920 0.399306 -0.279624 -0.348621 0.648861 -1.637535 -1.539010 1.788549 0.440135 -0.738040 0.042089 -0.424494 -0.228924 1.531254 -0.331898 1.037670 -0.837507 -0.485307 -1.009363 -1.834687 0.630114 0.846783 -1.326594 0.242551 0.562242 1.583995 0.272529 
ja 0.108408 -0.572796 -0.039255 0.150694 -0.800436 -1.178998 0.088396 -0.389569 0.703136 0.629857 -1.647999 0.793125 0.863811 0.298557 0.321940 0.444970 0.311063 -0.308586 0.015306 -0.023883 -0.072613 0.418735 0.534520 -0.129240 -0.929702 -0.046389 0.988506 -0.032987 0.502710 0.708854 -0.861516 -0.514355 -0.232606 -0.530573 -0.621613 0.154515 0.742600 -0.857646 -0.124647 -0.099660 0.320824 -0.007251 -1.020061 0.180004 -0.246855 0.441606 -0.945639 0.135709 -0.467921 0.290852 -0.531097 0.006677 -1.390606 -0.099131 -0.206143 -0.223957 -0.205235 -0.804080 -0.389697 -0.659283 0.608183 0.362332 -1.008301 -0.574902 0.866921 0.570645 0.347307 0.353331 1.574000 -0.447467 -0.703934 -1.004851 0.580396 -1.285496 -0.227758 -1.078945 -1.224460 -0.584041 -0.265217 -0.672781 -0.272918 0.331330 0.062575 -0.449443 0.151958 0.037260 0.979665 -0.723635 1.329742 -0.380605 0.250084 0.872572 -0.086187 1.077558 -0.847865 1.261564 0.458577 -1.230627 1.205030 0.657039 
einen -0.463396 -0.213735 -0.719090 -0.514681 0.394280 -1.089602 -0.282230 -1.180639 0.223292 0.453814 -0.830762 -1.229724 -0.348175 -1.298540 -0.466301 1.939107 -0.081973 -0.822145 1.517964 0.708693 -0.653000 -0.444891 0.238485 -0.286909 -0.479168 0.349604 -0.222031 -0.770404 -1.222543 -1.011171 0.829693 0.383132 -1.119705 0.394069 -0.805393 0.363392 0.779350 -0.052753 0.296324 -1.874252 1.641007 -0.220090 1.874536 -0.281614 0.745901 0.300947 -0.106969 -1.439619 0.764387 1.000120 -1.142634 1.128349 1.202948 0.275732 1.264273 0.552447 0.004973 0.167730 0.378845 -0.420586 1.720342 -0.784243 -0.604665 -0.757707 0.157866 0.865432 -0.413418 1.297019 -0.158060 1.821544 0.537003 0.627360 0.956531 -1.477124 -0.353156 0.969580 0.779801 -0.707525 -1.927884 -0.602645 -0.548270 0.446995 -0.655523 -0.506472 -0.438947 0.378797 0.476116 0.257743 1.114044 -0.078926 0.060216 0.450595 0.130625 -1.143062 0.060099 -1.188788 -0.514456 -1.324455 0.971045 -0.277580 
oder 0.670897 -0.742607 0.977373 0.976644 -0.213479 0.379701 0.369967 -0.775440 -0.317304 0.575702 0.298956 -0.045402 0.854679 -0.717260 -0.587620 0.769660 1.840443 0.279724 0.608519 -1.191968 -0.110755 0.811160 -1.558598 -1.061661 -1.222256 -1.192492 0.902846 0.895004 0.850365 0.300046 1.054686 0.295966 0.201285 0.248635 1.615445 0.201280 0.414435 -0.777696 0.779792 -0.368157 0.208020 -0.602071 -0.507631 -0.477842 -0.374675 0.526092 0.138178 -0.752277 -0.298340 0.230987 0.503439 -0.988863 0.271833 -1.212787 0.324775 -1.790768 0.116100 -0.085290 -0.380713 -1.071258 0.423175 0.152552 0.108448 -0.576792 0.026880 0.922618 0.066769 -0.146527 0.144164 -0.706643 -0.206444 -0.581322 -0.310289 -1.208004 -1.186854 -0.305079 0.596743 -1.355925 -0.166245 0.621059 0.587688 -0.154507 0.331864 -0.452368 0.435283 -0.854021 0.279814 -0.144164 -0.115595 -0.490774 -0.642295 -1.147247 -0.619553 0.656322 -0.044995 -0.108425 0.144393 -1.064633 -0.468842 0.077485 
aber 0.402133 -0.315661 0.330887 0.796267 0.060545 -1.019605 1.030490 0.050523 0.763168 -0.948507 -0.848712 0.498333 -0.013938 -0.460209 -0.271792 1.390156 0.378275 -0.656949 -0.716064 -0.126589 -0.866120 0.767148 -0.280775 -0.552954 -1.141134 -0.416851 0.428583 0.166328 -0.076193 0.786991 0.203626 -0.004837 0.974130 0.216232 -0.166935 -0.153872 1.099204 -0.486682 -0.084834 -0.162948 0.020454 0.605882 -0.760950 -0.404165 -0.743825 -0.051166 0.788765 -0.138741 0.898089 1.046079 -0.610118 0.334931 0.295484 -0.553930 0.136421 -0.539929 0.621264 0.159858 -0.341628 -0.588882 1.171881 -0.203715 0.287895 0.326895 -0.539862 0.993561 0.354586 1.295205 0.771321 0.054928 -0.898974 -0.329338 0.495656 -0.227395 0.001792 -0.780992 -0.792701 -0.499518 -0.443591 0.121599 -0.130772 0.484479 0.817906 0.267126 -0.408794 -0.466390 0.097645 -0.909309 0.372649 0.051394 -0.033531 -0.364502 -1.079760 0.350539 -0.197247 0.204567 0.825515 -2.106303 0.381869 0.727826 
gegen 1.630104 0.557045 -0.472678 0.425871 -0.348356 -0.784983 0.989897 0.063211 0.525765 -0.671310 0.121892 -0.724275 0.010534 -0.936895 0.211827 -1.684723 -0.981085 -1.096050 0.301595 -2.371778 0.502270 0.432193 0.647136 -0.595507 -0.178104 0.042921 -1.735878 -1.199447 -0.669020 -1.363857 -0.606908 -0.935897 1.983012 0.119698 -0.630670 -0.404169 -1.744600 2.028085 1.582989 0.268457 -0.435557 0.094394 0.106305 -1.629022 1.264171 0.061728 0.389731 0.677524 0.459660 -0.186130 -1.184381 -0.480753 -0.729305 -0.795006 -0.788678 -0.735409 0.371809 0.653419 1.174355 0.494100 0.110000 -0.467504 0.855216 -0.780939 -0.237958 0.083582 -0.226572 0.492167 0.701443 0.003632 -0.763661 -0.414966 0.460258 -0.512207 0.150595 -1.344684 -0.125664 -0.246918 1.348051 0.631115 -0.108624 -0.481792 0.378503 -0.014448 -0.394095 -0.288835 0.923782 -0.357926 0.718812 -0.086344 -0.124094 0.959383 -0.545555 0.069344 -0.686466 -1.072336 0.017315 -0.427826 -0.514805 0.113200 
wenn 1.513263 -0.611674 -0.953012 0.154695 -0.192630 0.614833 -0.035140 -0.383291 1.238170 0.596820 -0.785223 1.261536 -0.808585 0.244997 -0.657745 -0.333398 0.578470 -0.605195 0.777253 -0.110643 -0.827972 -0.722245 -0.698780 -1.447398 -0.445398 -1.373407 -0.164213 -0.813140 0.467939 0.905596 0.573940 0.416849 -0.301580 0.057258 1.105295 -0.642352 1.299285 -0.436326 0.616963 1.219555 0.565631 0.147068 -0.679844 -0.460728 0.770293 -0.189520 0.423743 0.387642 -0.248145 1.522797 -0.442103 0.129634 0.206521 -0.426353 1.249693 0.014686 0.793890 -0.685751 -0.310901 0.650665 0.331614 -0.408554 0.022194 -0.446495 0.116783 1.017199 0.246184 1.532250 0.431959 -0.286910 0.105400 0.467190 0.204449 -1.378274 -0.422637 -0.579395 0.185309 -0.085494 0.463402 0.465908 -0.606784 1.238081 0.154878 -0.165700 -0.406832 0.130061 0.504148 0.492694 -0.105522 0.296959 -0.874140 1.515014 0.144929 0.849430 -2.437248 0.864248 0.833278 -1.117528 0.297016 0.232926 
haben 1.318207 -0.762380 0.222252 -0.226476 1.848969 1.164039 0.445754 -0.006844 0.768604 0.575239 -0.043781 0.243808 -0.450759 0.572581 -0.800025 -0.058548 0.254206 -1.040265 0.447024 0.035289 0.131353 0.509452 0.485635 -2.009204 -0.710872 -1.104185 0.488243 -0.682756 0.571554 -0.309010 0.984348 0.538715 0.020159 -0.504754 0.749275 -1.128580 -0.001290 -0.393213 0.871249 -0.401002 -1.263967 0.675231 -1.080215 -1.200693 0.867984 -0.645198 0.516735 -1.482760 0.265328 1.378778 -0.139120 -0.266401 -0.575058 0.143329 -0.283082 -1.080115 1.953943 -0.500631 0.777784 -0.168148 2.411883 -0.010572 -0.625291 -1.655896 -0.546728 1.625730 0.542093 -0.835740 0.134113 -0.063243 -0.715982 0.151820 0.216955 -0.029079 0.850375 -0.401907 -0.592888 -0.261263 0.755267 0.684778 -0.175866 -0.436101 -0.023227 1.188990 0.161092 -0.001103 1.344240 -0.213047 -0.913889 -0.101785 0.324084 -0.546016 -0.346123 -0.300629 -0.595177 -0.756204 1.010475 -0.961198 0.337743 -0.966277 
hier 0.892537 -0.823466 0.887844 -1.125284 -1.335422 0.075683 -0.039859 -0.294376 1.424300 -0.108127 -1.394892 1.561282 -1.399795 0.893463 -1.232690 -0.173403 1.260450 0.505892 1.225376 0.836220 -1.083873 0.498650 0.500464 -0.431806 -1.191547 -1.138629 -0.405336 0.858233 0.615443 -0.835268 -0.379168 0.803013 -0.043271 0.320760 -0.087226 -0.086176 0.860978 -0.448894 0.245713 -1.042050 0.673160 0.774348 -0.660332 -0.500479 -0.371380 -0.806126 0.321643 0.937330 -0.535903 -0.109288 -0.509100 0.556907 -0.154655 -0.880493 0.121981 0.463053 1.174186 -0.777455 0.298637 0.556158 0.332990 -0.900632 0.315839 0.035559 -1.500909 -0.209810 -0.322785 -0.509746 1.636082 0.325681 -0.894353 -0.709679 0.675869 -0.986727 0.050546 -1.000559 -0.834007 0.149638 0.107276 0.253885 -1.288517 0.509992 -0.071579 -0.834238 0.444622 -0.821089 0.391274 -0.407267 0.636950 1.239558 -0.594591 1.056926 -0.573088 1.011636 -0.327029 0.868958 0.209702 -0.883920 0.843364 0.149734 
via -0.378235 0.110274 -1.076129 -0.594436 -0.464421 -0.762105 -0.061982 -0.568392 1.304826 0.074025 0.552482 -0.264404 0.465626 -0.561206 -2.112044 -0.130941 -0.990657 -0.530205 0.824983 -1.035320 0.020463 -1.093494 -0.427439 0.297748 0.938142 -0.137421 1.741584 0.520999 0.581418 0.014906 0.489919 -0.733238 -0.409555 -1.495149 1.348267 -0.390112 -0.644931 1.540727 -0.340608 1.291306 0.427998 0.019511 -1.626541 -0.194538 0.329705 -0.115532 1.011168 -1.032359 -0.996302 0.342992 0.497060 -0.742528 -0.436865 -0.897847 -0.305411 -0.149072 -0.692245 -0.541499 -0.865080 -0.241036 -0.753322 -0.806840 -0.661356 1.090323 -0.842835 0.369578 0.103868 -0.541484 -0.412142 0.107100 0.112099 0.642438 -0.764593 -0.102634 -1.269759 -0.593753 -0.649861 -0.027037 0.014193 0.729113 -0.147199 1.332099 0.019572 -0.245327 -0.085169 1.000283 -0.541301 -0.779353 0.326957 -0.905049 -0.427129 -0.773724 -0.388866 0.148761 -0.321186 -0.185798 0.301806 -0.492940 -1.013268 0.615793 
immer 0.689646 -0.944160 0.765792 -0.327069 -0.779914 0.450523 0.547590 -1.242295 1.230449 -0.537004 -1.251512 0.434688 0.278231 -0.165363 -0.234893 1.058659 1.114980 -0.117223 1.254439 -1.044905 -1.406726 0.353121 0.133971 -0.779653 -0.800600 -0.439260 1.634735 0.343019 1.767337 0.121048 -0.474896 0.071512 -0.568281 -0.257849 -0.462294 -0.127484 0.937831 -1.013044 -0.950403 -0.830669 1.214990 -0.769307 -0.374304 -0.752132 0.071749 0.584444 0.171438 -0.478697 0.437349 -0.229349 0.669341 -0.015275 -1.169926 0.635023 1.324132 0.064336 -0.216215 -1.935947 0.039484 -0.651961 -0.095158 0.141153 -0.908269 -0.266870 -0.832326 -0.139046 -0.677907 -0.021629 0.097873 0.262880 -0.369641 0.822376 0.680250 -1.054982 1.099141 -0.347402 0.044749 -0.400900 -0.409285 0.661230 0.112548 -0.677246 -0.850677 -1.078989 -0.321354 0.233034 -0.254814 -0.407516 1.204805 0.031511 0.107901 0.568059 -0.593121 -0.505576 -0.791975 -0.044975 0.610927 -0.340720 0.868964 0.039723 
neue -0.132607 0.098518 0.718645 0.138470 -0.134307 -1.377962 -1.018438 -0.777066 0.696969 1.144365 -0.218215 -0.838634 0.637831 -0.089356 -0.391781 0.899508 -0.443479 -0.143154 0.667843 0.095248 -0.132592 -0.387346 0.595007 -1.230317 0.318016 -1.226594 -0.442311 0.282551 0.537530 1.109423 0.939901 -0.560658 0.230668 -0.693878 0.764865 0.516987 0.583396 -1.686127 -1.026787 -2.158483 0.364842 0.039322 -1.312053 -0.270170 0.733058 -0.801652 0.171217 0.461260 -1.096956 -0.760994 -0.260018 0.291068 0.807520 0.031606 -0.618322 -0.780956 1.546085 0.055548 -0.108853 1.768388 0.751029 -0.678447 1.567620 -0.755286 -0.344304 0.573974 -0.098273 -0.360538 0.434190 -0.120023 -0.341305 0.662385 0.415996 -0.341662 -0.923654 -0.676249 0.561617 -0.009081 -0.391928 -0.306519 -1.457981 -0.444854 -0.417290 -1.005874 0.376332 0.408422 -0.720764 -0.461879 -1.370880 0.565311 -0.171764 -0.362331 -0.151539 -1.100970 0.862357 -1.056000 -0.182809 -1.117841 -0.618658 0.469913 
#juveawards2014 0.399573 0.785578 1.299307 -0.205423 -0.019221 0.021203 0.873172 -0.217326 -0.294667 -0.509710 -0.902641 -0.301026 1.165936 -0.841371 0.959672 0.856098 -0.182251 -0.812407 0.457886 0.529890 -0.489835 1.125197 1.000870 -0.500520 -2.276081 1.353054 0.289032 0.112645 -0.396879 -0.188793 1.658272 -0.912952 0.184801 -0.838045 -1.007516 -0.292590 0.709450 0.373917 -0.043649 -0.826282 -0.645528 -0.007504 -0.012448 -0.713098 1.575299 -0.560461 1.777026 0.210475 -0.108409 -0.132147 0.270464 0.210607 -0.239052 0.397131 -0.642125 -1.573606 1.175194 0.095329 -0.518525 1.550476 1.309442 -0.503452 0.668528 -0.503452 0.290432 0.512548 0.571982 -0.276021 0.777026 0.403556 0.629657 0.721878 -1.346433 -0.024247 1.343451 0.560697 0.241302 0.557960 0.845974 -1.254398 -1.084878 -0.546506 -0.685993 0.280089 0.793529 -0.207480 0.425017 0.198410 0.103307 0.044364 -0.265706 -0.345855 -0.893306 -1.428723 1.106871 -0.257801 0.410470 -0.776862 0.346397 -0.003266 
@ 0.993247 -0.350768 -0.328197 -1.468601 -1.192487 0.081170 0.324610 -0.430754 -0.592896 -0.119972 0.012784 -0.367197 -1.221444 -0.208311 -1.114342 -0.064051 1.208623 -0.833212 0.298355 0.246934 0.359304 -0.068769 0.947730 -0.615664 -0.155824 -0.566085 -0.001353 0.316126 0.002322 1.129294 0.656719 -1.332581 -0.347784 0.083231 0.245366 -0.747622 0.366143 0.117672 0.702883 0.590813 0.351075 0.124250 -0.790986 -1.193179 -0.845552 0.668352 -0.698854 0.018407 -1.513456 -0.109466 -0.091670 -1.281990 -0.708411 -1.709727 -0.889110 -0.425054 -0.514903 -1.091200 -0.615634 0.721405 0.424663 0.414340 0.445988 -0.259916 0.742388 -0.726949 -0.485302 -0.197311 1.613972 0.895789 -1.023538 0.364973 2.503477 -0.065498 -0.236203 0.391911 -0.049394 0.333418 0.465460 0.144948 0.147363 0.884816 -1.239419 1.150978 -1.127625 -0.384541 0.268317 -0.420080 2.408427 -0.896470 -0.586722 0.818547 0.241935 0.607596 0.575024 -1.013016 -0.032642 1.133553 -0.782051 1.881514 
dass 1.328514 -0.590912 -0.200646 -0.283228 0.202415 0.544521 -0.381312 -0.011973 1.602515 -0.189442 -0.963841 0.571991 -0.885932 0.775506 -0.189294 -0.230240 -0.929604 -1.348720 -0.030890 -0.541153 0.093327 0.315255 0.023731 -0.734338 -0.094045 0.325414 0.356544 -0.571905 0.940328 0.978994 0.670765 -0.062687 0.167010 -0.339347 -0.077814 -0.034546 1.789667 -0.976124 -0.150859 -0.290605 0.023971 0.790497 -0.106108 -0.841229 0.635453 0.273662 0.705483 0.076870 -0.156189 2.225511 -0.344324 1.156062 0.025645 -0.742788 0.707170 0.510801 1.096364 -0.771267 0.563994 -0.326469 1.643884 -0.216515 -0.966060 -0.263976 0.836044 1.334602 1.042998 0.031335 0.097163 0.025843 -0.367630 1.279495 -0.639778 -0.581038 0.577759 0.179950 -1.356363 0.101862 -0.583519 0.077876 0.551055 -0.081234 0.807508 -0.695336 -0.953531 -0.540968 0.754794 -0.107952 -0.015213 -0.500561 -0.284840 0.743299 -0.072668 0.964573 -1.170511 1.396180 0.907547 -1.101141 0.879200 0.080763 
bayern 0.856249 -0.061901 0.022386 -0.724068 0.612454 1.560073 0.270144 0.690543 1.323280 -2.115730 -0.857287 -2.132717 2.035663 0.738437 0.470637 0.791704 0.473669 1.122281 -0.245786 -2.404551 1.119895 0.313977 1.790696 -0.793240 0.545192 0.396389 0.239121 -1.216139 0.037534 -0.334735 0.114676 -0.454987 1.928839 -0.774502 -0.086933 0.330396 0.104829 -0.185066 0.282890 -0.222839 0.197664 -0.315332 -0.256270 -1.075426 0.810766 1.171109 -1.020805 -0.313854 -1.032338 0.721504 0.357736 -1.929332 -1.761201 -0.379867 -0.206954 -0.662395 0.895091 -1.512064 0.736160 2.039899 1.383549 0.524479 -0.401835 -1.689592 1.812175 1.332075 -0.009414 1.091004 1.779772 -1.134797 -0.867214 1.210959 -0.572943 -1.457036 0.766496 -0.620098 1.233472 0.835288 -0.266982 -0.085212 -1.090202 0.410593 0.061585 0.603499 -0.061113 -0.144178 0.099372 -1.037433 0.190000 -0.055365 0.481526 1.013825 0.641159 -0.766365 -1.401970 -0.144391 -0.098753 0.051182 1.134518 0.659378 
the -0.353649 0.403220 -0.370325 -0.700452 -1.074353 1.311833 0.205191 0.301121 -0.667313 -0.821281 0.398742 -1.020911 -1.232378 -0.405927 -0.780739 0.993581 -0.460991 -0.066388 0.376441 -0.183357 1.523483 -0.122063 0.672857 -0.044122 0.998297 2.025455 -0.035281 -0.324989 0.279619 0.315869 -0.078903 0.464252 0.425245 -0.369653 -0.193117 -1.035950 0.897978 -1.249788 -1.261170 -0.067330 -0.370143 -0.182615 -0.983020 -0.794835 -0.073054 0.256211 -0.205809 0.116184 -1.171807 0.192577 0.370725 -1.730739 -0.146363 -0.100312 0.649565 -1.269765 -0.642928 -0.689780 0.976666 0.262547 -0.364172 0.816413 -0.148896 -0.161309 0.407367 -0.536053 -0.111177 -0.002890 0.068264 0.691641 -0.465411 -0.178635 0.025885 -1.904528 -0.324671 -0.467739 0.080773 0.146977 0.405682 -0.666887 0.272862 1.812578 -1.185750 -0.261679 0.436417 0.873135 0.235377 -0.607110 1.074615 -0.478299 0.106137 0.714580 -0.489556 -0.065157 0.807744 0.728540 -1.474851 1.229604 -1.217588 -0.368097 
vw 1.936078 -0.734028 0.904305 -1.634665 0.260309 0.089279 0.026029 0.953684 0.957432 -1.067603 -0.433111 1.240735 0.693805 -0.161539 -1.460648 -0.814082 -0.921955 -0.999768 1.210971 -0.403133 0.983897 0.050626 1.107343 0.641901 -0.712148 0.987806 1.623752 2.226281 0.168019 0.733711 4.575108 -1.102023 -1.163997 0.042706 -1.602388 -1.603883 0.230560 -0.528081 0.128520 0.526665 -0.312813 -0.995414 -1.285225 0.408125 0.509278 -0.729117 0.943390 -0.437623 0.599918 0.995325 -1.084129 0.813438 -0.878577 1.093875 -1.424173 1.290845 2.559144 -0.278641 -0.565620 1.830006 0.840545 -0.419154 1.459276 -2.119387 0.844669 1.058124 -0.612253 -0.288206 0.476336 -0.082749 0.906475 0.761131 -0.626815 1.571079 -1.105479 -0.120507 0.662861 -0.727682 -0.741540 -0.740404 -2.768705 1.120674 0.673600 -0.627554 0.738201 -3.358765 0.593993 0.352710 1.100611 -0.758480 -1.467304 -0.476964 -0.087341 1.061294 -3.194493 -1.121497 -0.074909 -0.542013 1.196687 1.668999 
alle -0.095327 0.593707 0.180050 0.332358 0.906335 0.212373 -0.795590 0.167868 0.022138 0.214396 -0.647195 0.106201 1.195277 0.109389 0.850979 0.489231 -0.041413 -0.120553 0.699177 -0.873885 -0.869503 0.362510 0.369191 0.244455 -0.424021 1.376140 -0.293780 -0.548031 0.752444 -1.097742 0.205133 -0.387404 -0.684338 0.703501 -0.713830 -0.389103 1.448937 0.104622 -0.795863 -0.540291 0.122139 0.258289 -0.600919 -0.191670 1.810667 -0.253623 0.588192 -1.441395 -0.783927 1.188148 0.977074 0.568981 -0.367489 0.487746 0.684406 0.258449 1.350170 -0.277633 -0.020495 0.208993 0.675086 -1.040096 -0.731469 0.244182 -0.879578 1.596226 -0.427603 0.662956 -0.455054 0.010822 1.455812 0.827569 -0.520657 -1.121389 0.275112 -1.522728 -0.045141 0.620199 0.656230 0.633666 -0.791034 0.688830 -0.216457 0.165067 -0.746253 0.256628 0.301241 0.322018 0.762558 0.061604 0.663566 0.312766 -0.159307 -1.281641 -0.777794 -0.881123 1.407023 0.370722 0.715862 -1.254470 
war 0.733565 -0.247914 -0.059346 -0.046592 -0.317139 -0.337674 -0.540029 -1.254158 1.255607 0.623260 -0.349662 0.747640 1.045605 0.161601 0.340373 1.152580 0.413416 -0.058335 0.411770 -1.731561 -0.289759 0.813305 -0.322499 -0.996304 -0.516093 -0.554986 0.714981 -0.551542 1.026634 0.731477 -0.876037 0.087797 0.325482 -0.491919 0.563766 -0.000845 0.637023 -0.011330 -0.594793 0.643926 -1.138022 0.183942 -0.768037 -0.341969 -0.070120 -0.593415 1.366572 0.072584 -0.035906 1.420949 -0.479526 -0.945850 -0.101911 -0.554335 0.447658 0.113835 0.167696 0.009608 0.921491 -0.204078 0.255318 -0.440200 -0.587865 -0.476622 0.478017 1.976305 0.853947 1.188239 1.197863 0.354359 -0.028058 -0.964677 0.054816 -1.700522 0.062518 -0.483662 0.227362 -0.331524 0.520047 0.220932 -0.670984 -0.475047 -0.681349 -0.331321 0.517760 0.062825 -0.181522 -0.020713 -1.186335 -0.173058 0.605554 -0.419922 -0.494474 -0.524330 -1.433341 1.391545 0.511570 -0.283264 -0.103239 1.061855 
#neuer 0.216966 -0.127305 -0.547761 -0.368575 -0.611479 -1.018374 0.727873 0.859852 1.039378 -1.565621 -0.911111 -1.490471 0.526324 -0.012048 0.446535 -0.073694 -0.554426 -1.064045 -0.314332 -0.143336 0.035068 -1.542760 -0.899768 1.364961 -0.708394 -0.968004 1.019795 -0.521820 0.269443 1.633636 0.217417 -0.219047 -0.514926 -1.870145 -1.473679 -1.872589 0.690911 -1.858351 -1.258222 -0.859510 0.590016 -1.737157 0.564894 0.110510 -1.177820 -0.678059 0.103585 -1.738457 0.658946 1.168114 -0.003344 -0.061236 -1.217887 -0.701694 -0.331416 -0.896733 0.360899 -0.531638 0.348049 -0.317549 0.120549 -0.072779 0.093559 0.161656 -1.780977 -0.136588 -0.845591 -0.427665 -0.129920 -0.927713 0.516156 0.470609 -1.057885 -0.482974 -0.765839 -1.514368 0.018388 2.040193 -1.763156 -0.515025 -1.136854 0.765352 0.329679 0.501657 -0.707994 -0.347886 1.245305 -1.762734 0.172392 -0.660702 0.378343 -0.929400 -0.370449 -0.484589 -1.060902 1.610357 0.294276 -1.408207 1.958372 0.518739 
